\data\
ngram 1=4415
ngram 2=18349

\1-grams:
-4.276684	<unk>	0
0	<s>	-0.6887632
-1.3165207	</s>	0
-4.1399894	stave	-0.09378124
-2.4486833	one	-0.26245993
-3.2950172	marleys	-0.23665535
-3.464106	ghost	-0.37602067
-3.250674	marley	-0.2524872
-2.1013396	was	-0.3386215
-3.250674	dead	-0.23196898
-1.6644912	to	-0.42988962
-4.016763	begin	-0.09378124
-1.9910691	with	-0.45625773
-2.4553852	there	-0.46177316
-2.5707443	is	-0.24471985
-2.5534747	no	-0.24765691
-4.016763	doubt	-0.14654808
-3.7447822	whatever	-0.09378124
-2.617185	about	-0.35046002
-1.9597634	that	-0.41110057
-1.7394729	the	-0.33505422
-4.1399894	register	-0.09378124
-1.6228305	of	-0.3988978
-2.0696468	his	-0.26970503
-4.1399894	burial	-0.09378124
-3.901431	signed	-0.09378124
-2.2289743	by	-0.3691545
-4.1399894	clergyman	-0.09378124
-3.6299012	clerk	-0.15057428
-4.1399894	undertaker	-0.09378124
-1.4373416	and	-0.2925271
-4.1399894	chief	-0.09378124
-4.016763	mourner	-0.2400968
-2.3275895	scrooge	-0.39371526
-1.9576113	it	-0.4820432
-2.8962116	scrooges	-0.42779368
-3.2950172	name	-0.21672621
-2.843617	good	-0.19165869
-2.3326511	upon	-0.66610867
-3.464106	change	-0.12600198
-2.098361	for	-0.42580634
-3.2104416	anything	-0.13764365
-2.1013396	he	-0.41904128
-4.016763	chose	-0.09378124
-3.1736224	put	-0.20602268
-2.956065	hand	-0.27819228
-2.6918755	old	-0.2746774
-2.0586724	as	-0.4183958
-1.9285511	a	-0.21784179
-4.1399894	doornail	-0.28333494
-3.250674	mind	-0.18084456
-2.2289743	i	-0.49287337
-3.250674	dont	-0.31840178
-3.901431	mean	-0.27655157
-3.3444085	say	-0.17811456
-3.1736224	know	-0.29883862
-2.5980089	my	-0.27967262
-3.5391397	own	-0.17621486
-3.901431	knowledge	-0.09378124
-2.6372473	what	-0.32115746
-4.1399894	particularly	-0.09378124
-2.9152608	might	-0.49504793
-2.7543776	have	-0.30835572
-3.3444085	been	-0.17264946
-3.901431	inclined	-0.09378124
-3.901431	myself	-0.09378124
-4.1399894	regard	-0.09378124
-4.1399894	coffinnail	-0.09378124
-4.1399894	deadest	-0.09378124
-3.7447822	piece	-0.58436495
-4.1399894	ironmongery	-0.09378124
-1.6997726	in	-0.561398
-4.016763	trade	-0.09378124
-2.2890897	but	-0.30969232
-4.1399894	wisdom	-0.09378124
-3.1736224	our	-0.09378124
-4.1399894	ancestors	-0.09378124
-4.1399894	simile	-0.09378124
-4.1399894	unhallowed	-0.09378124
-3.0513608	hands	-0.26625174
-3.4001465	shall	-0.2268249
-2.4691076	not	-0.27846578
-4.1399894	disturb	-0.09378124
-2.3588839	or	-0.23547761
-4.1399894	countrys	-0.09378124
-3.1396823	done	-0.23948155
-2.2799752	you	-0.34177086
-2.9351838	will	-0.33456165
-4.016763	therefore	-0.09378124
-4.1399894	permit	-0.09378124
-2.5368657	me	-0.31992403
-4.1399894	repeat	-0.09378124
-4.1399894	emphatically	-0.09378124
-3.2104416	knew	-0.1635776
-4.016763	course	-0.14654808
-2.9351838	did	-0.28580973
-2.8962116	how	-0.19269103
-2.843617	could	-0.3179311
-2.7543776	be	-0.18170725
-4.016763	otherwise	-0.09378124
-2.2799752	were	-0.18878306
-4.016763	partners	-0.09378124
-3.2104416	many	-0.16981986
-3.464106	years	-0.16821635
-4.016763	sole	-0.09378124
-4.1399894	executor	-0.09378124
-4.1399894	administrator	-0.09378124
-4.1399894	assign	-0.09378124
-4.1399894	residuary	-0.09378124
-4.1399894	legatee	-0.09378124
-3.5391397	friend	-0.09378124
-3.3444085	even	-0.14305551
-2.4553852	so	-0.20853266
-4.1399894	dreadfully	-0.09378124
-3.7447822	cut	-0.09378124
-2.3984942	up	-0.327622
-4.1399894	sad	-0.09378124
-4.016763	event	-0.09378124
-2.6918755	an	-0.16561471
-4.1399894	excellent	-0.09378124
-2.7821352	man	-0.24882261
-3.3444085	business	-0.20009969
-2.165653	on	-0.40345985
-2.7411368	very	-0.16959655
-3.1082034	day	-0.21140227
-3.901431	funeral	-0.09378124
-4.1399894	solemnised	-0.09378124
-4.1399894	undoubted	-0.09378124
-4.016763	bargain	-0.09378124
-4.016763	mention	-0.28333494
-4.1399894	brings	-0.09378124
-3.0788527	back	-0.19969286
-3.6299012	point	-0.1555772
-3.7447822	started	-0.09378124
-2.3588839	from	-0.34543443
-2.5208683	this	-0.2589029
-3.2104416	must	-0.48789325
-4.1399894	distinctly	-0.09378124
-4.016763	understood	-0.09378124
-2.978001	nothing	-0.16549118
-3.3444085	wonderful	-0.09378124
-3.0788527	can	-0.18150161
-3.025506	come	-0.2600202
-4.016763	story	-0.09378124
-3.901431	am	-0.27357137
-3.250674	going	-0.4024529
-4.1399894	relate	-0.09378124
-2.6582813	if	-0.45430028
-3.0513608	we	-0.19817957
-3.464106	perfectly	-0.13080648
-4.016763	convinced	-0.09378124
-4.1399894	hamlets	-0.09378124
-3.250674	father	-0.1579733
-3.7447822	died	-0.09378124
-2.607491	before	-0.33133593
-3.7447822	play	-0.14654808
-3.5391397	began	-0.4014903
-2.617185	would	-0.42161125
-2.811789	more	-0.25085172
-4.016763	remarkable	-0.09378124
-3.5391397	taking	-0.21056737
-4.1399894	stroll	-0.09378124
-2.233003	at	-0.46770763
-3.025506	night	-0.23945577
-4.1399894	easterly	-0.09378124
-3.901431	wind	-0.13729627
-4.1399894	ramparts	-0.09378124
-2.7821352	than	-0.19053972
-2.9152608	any	-0.12349175
-3.1736224	other	-0.12314459
-4.1399894	middleaged	-0.09378124
-3.464106	gentleman	-0.12230156
-4.1399894	rashly	-0.09378124
-3.4001465	turning	-0.19864441
-2.4486833	out	-0.2957684
-3.0011044	after	-0.114293166
-3.0513608	dark	-0.105775654
-4.1399894	breezy	-0.09378124
-4.1399894	spotsay	-0.09378124
-4.016763	st	-0.09378124
-4.1399894	pauls	-0.09378124
-4.016763	churchyard	-0.09378124
-4.1399894	instanceliterally	-0.09378124
-4.1399894	astonish	-0.09378124
-4.1399894	sons	-0.09378124
-3.901431	weak	-0.09378124
-3.025506	never	-0.120039955
-4.1399894	painted	-0.09378124
-3.1396823	stood	-0.1655071
-3.7447822	afterwards	-0.09378124
-3.6299012	above	-0.2452443
-4.016763	warehouse	-0.1856619
-3.250674	door	-0.3068788
-4.016763	firm	-0.09378124
-3.5391397	known	-0.12230156
-3.464106	sometimes	-0.16516928
-3.1396823	people	-0.14549334
-3.5391397	new	-0.20672971
-3.250674	called	-0.1573132
-3.5391397	answered	-0.1528273
-3.464106	both	-0.13080648
-4.1399894	names	-0.09378124
-2.4832778	all	-0.30665544
-3.901431	same	-0.15145452
-2.2537265	him	-0.38640606
-4.1399894	oh	-0.16246724
-4.1399894	tightfisted	-0.09378124
-4.1399894	grindstone	-0.09378124
-4.1399894	squeezing	-0.09378124
-4.1399894	wrenching	-0.09378124
-4.1399894	grasping	-0.09378124
-4.016763	scraping	-0.09378124
-4.016763	clutching	-0.09378124
-4.1399894	covetous	-0.09378124
-4.1399894	sinner	-0.09378124
-3.2950172	hard	-0.16744514
-3.901431	sharp	-0.09378124
-4.1399894	flint	-0.09378124
-2.5620236	which	-0.30226916
-4.016763	steel	-0.09378124
-2.4420831	had	-0.3055418
-3.025506	ever	-0.2236737
-3.4001465	struck	-0.14654808
-3.7447822	generous	-0.09378124
-3.2104416	fire	-0.23376645
-3.7447822	secret	-0.09378124
-4.1399894	selfcontained	-0.09378124
-3.901431	solitary	-0.16080616
-4.1399894	oyster	-0.09378124
-2.956065	cold	-0.1588189
-3.4001465	within	-0.1528273
-4.1399894	froze	-0.09378124
-4.016763	features	-0.09378124
-4.016763	nipped	-0.09378124
-3.3444085	pointed	-0.23089668
-3.6299012	nose	-0.09378124
-4.016763	shrivelled	-0.09378124
-3.901431	cheek	-0.09378124
-4.1399894	stiffened	-0.09378124
-4.1399894	gait	-0.09378124
-2.7680347	made	-0.19265483
-3.0513608	eyes	-0.16688909
-3.5391397	red	-0.09378124
-4.1399894	thin	-0.09378124
-3.901431	lips	-0.09378124
-4.1399894	blue	-0.09378124
-3.3444085	spoke	-0.09378124
-4.1399894	shrewdly	-0.09378124
-4.1399894	grating	-0.09378124
-3.025506	voice	-0.18830325
-4.1399894	frosty	-0.09378124
-4.1399894	rime	-0.09378124
-3.2950172	head	-0.29931575
-4.016763	eyebrows	-0.09378124
-4.1399894	wiry	-0.09378124
-3.5391397	chin	-0.13729627
-3.6299012	carried	-0.14654808
-3.5391397	low	-0.13729627
-4.1399894	temperature	-0.09378124
-3.1396823	always	-0.120167136
-4.1399894	iced	-0.09378124
-3.5391397	office	-0.09378124
-4.1399894	dogdays	-0.09378124
-3.6299012	didnt	-0.11936378
-4.1399894	thaw	-0.09378124
-4.016763	degree	-0.09378124
-2.956065	christmas	-0.29202512
-4.1399894	external	-0.09378124
-4.016763	heat	-0.09378124
-2.7158082	little	-0.12582791
-3.7447822	influence	-0.09378124
-4.016763	warmth	-0.09378124
-3.464106	warm	-0.1555772
-4.016763	wintry	-0.09378124
-3.5391397	weather	-0.12600198
-4.1399894	chill	-0.09378124
-4.016763	blew	-0.09378124
-4.1399894	bitterer	-0.09378124
-3.901431	falling	-0.09378124
-3.6299012	snow	-0.21056737
-3.901431	intent	-0.28333494
-2.4621923	its	-0.18248393
-3.3444085	purpose	-0.1528273
-4.1399894	pelting	-0.09378124
-4.016763	rain	-0.09378124
-3.5391397	less	-0.09378124
-3.2950172	open	-0.13508707
-4.016763	entreaty	-0.09378124
-4.016763	foul	-0.09378124
-2.8274117	where	-0.19614202
-4.1399894	heaviest	-0.09378124
-4.1399894	hail	-0.09378124
-4.1399894	sleet	-0.09378124
-4.1399894	boast	-0.09378124
-4.1399894	advantage	-0.09378124
-3.0788527	over	-0.28187978
-3.0788527	only	-0.12312001
-4.1399894	respect	-0.09378124
-2.4420831	they	-0.37841228
-3.250674	often	-0.13398668
-2.8604505	came	-0.19817957
-2.6271005	down	-0.24991217
-4.1399894	handsomely	-0.09378124
-3.5391397	nobody	-0.18073846
-3.3444085	stopped	-0.22465184
-3.6299012	street	-0.12230156
-4.1399894	gladsome	-0.09378124
-3.901431	looks	-0.09378124
-3.4001465	dear	-0.25926575
-2.956065	are	-0.23635025
-2.497926	when	-0.4812944
-3.1736224	see	-0.29710966
-3.901431	beggars	-0.09378124
-4.1399894	implored	-0.09378124
-4.1399894	bestow	-0.09378124
-4.1399894	trifle	-0.09378124
-3.250674	children	-0.13508707
-3.464106	asked	-0.36504817
-4.016763	oclock	-0.09378124
-3.2950172	woman	-0.25471577
-3.2104416	once	-0.13999699
-3.1396823	life	-0.1938183
-3.7447822	inquired	-0.16516928
-3.2104416	way	-0.23058173
-2.9152608	such	-0.37592077
-3.0788527	place	-0.22941402
-3.6299012	blind	-0.09378124
-4.016763	mens	-0.09378124
-4.016763	dogs	-0.09378124
-3.1736224	appeared	-0.34014595
-3.2104416	saw	-0.17495966
-3.2104416	coming	-0.10959287
-4.1399894	tug	-0.09378124
-2.5620236	their	-0.12113602
-4.1399894	owners	-0.09378124
-2.6271005	into	-0.62391114
-4.1399894	doorways	-0.09378124
-4.1399894	courts	-0.09378124
-2.8604505	then	-0.27537328
-4.1399894	wag	-0.09378124
-4.1399894	tails	-0.09378124
-2.8604505	though	-0.29262713
-2.2370694	said	-0.64351696
-3.464106	eye	-0.13398668
-3.2104416	better	-0.22426002
-4.016763	evil	-0.09378124
-3.1736224	master	-0.2142301
-3.5391397	care	-0.13729627
-3.2950172	thing	-0.114993975
-3.7447822	liked	-0.16080616
-4.1399894	edge	-0.09378124
-3.4001465	along	-0.3182995
-4.1399894	crowded	-0.09378124
-4.1399894	paths	-0.09378124
-3.901431	warning	-0.09378124
-3.901431	human	-0.09378124
-4.016763	sympathy	-0.09378124
-3.4001465	keep	-0.20336387
-3.901431	distance	-0.09378124
-3.901431	knowing	-0.09378124
-4.1399894	ones	-0.09378124
-3.901431	call	-0.09378124
-4.016763	nuts	-0.09378124
-4.1399894	timeof	-0.09378124
-3.3444085	days	-0.12230156
-3.4001465	year	-0.20933634
-4.1399894	eveold	-0.09378124
-3.1736224	sat	-0.26002583
-3.7447822	busy	-0.09378124
-3.901431	countinghouse	-0.09378124
-3.901431	bleak	-0.09378124
-4.016763	biting	-0.09378124
-4.016763	foggy	-0.09378124
-4.1399894	withal	-0.09378124
-3.4001465	hear	-0.23411806
-4.016763	court	-0.09378124
-3.6299012	outside	-0.14654808
-3.1736224	go	-0.19178489
-4.1399894	wheezing	-0.09378124
-4.1399894	beating	-0.09378124
-4.1399894	breasts	-0.09378124
-4.1399894	stamping	-0.09378124
-3.6299012	feet	-0.12600198
-4.1399894	pavement	-0.09378124
-4.016763	stones	-0.09378124
-2.497926	them	-0.26902464
-3.7447822	city	-0.09378124
-4.1399894	clocks	-0.09378124
-3.2104416	just	-0.15208222
-3.5391397	gone	-0.18073846
-3.250674	three	-0.16871607
-3.025506	quite	-0.20113313
-4.1399894	alreadyit	-0.09378124
-2.956065	light	-0.12823747
-4.1399894	dayand	-0.09378124
-4.1399894	candles	-0.09378124
-4.016763	flaring	-0.09378124
-4.016763	windows	-0.09378124
-4.016763	neighbouring	-0.09378124
-3.901431	offices	-0.09378124
-2.5534747	like	-0.3400082
-3.5391397	ruddy	-0.09378124
-4.1399894	smears	-0.09378124
-4.1399894	palpable	-0.09378124
-3.901431	brown	-0.09378124
-3.1736224	air	-0.15411918
-4.016763	fog	-0.27655157
-3.901431	pouring	-0.09378124
-2.877963	every	-0.2189486
-4.1399894	chink	-0.09378124
-3.901431	keyhole	-0.1856619
-4.016763	dense	-0.09378124
-3.0011044	without	-0.20822471
-3.6299012	although	-0.13729627
-4.1399894	narrowest	-0.09378124
-3.464106	houses	-0.13080648
-3.7447822	opposite	-0.09378124
-3.901431	mere	-0.09378124
-3.901431	phantoms	-0.09378124
-4.016763	dingy	-0.09378124
-4.1399894	cloud	-0.09378124
-4.1399894	drooping	-0.09378124
-4.1399894	obscuring	-0.09378124
-3.3444085	everything	-0.09378124
-3.2104416	thought	-0.2542884
-3.5391397	nature	-0.09378124
-3.5391397	lived	-0.17829752
-4.1399894	brewing	-0.09378124
-3.901431	large	-0.09378124
-4.1399894	scale	-0.09378124
-2.5534747	who	-0.24336065
-4.016763	dismal	-0.09378124
-4.1399894	cell	-0.09378124
-3.2950172	beyond	-0.14654808
-3.7447822	sort	-0.22764844
-4.016763	tank	-0.09378124
-4.1399894	copying	-0.09378124
-4.016763	letters	-0.09378124
-3.7447822	small	-0.13729627
-4.016763	clerks	-0.09378124
-3.1082034	much	-0.16655867
-4.016763	smaller	-0.09378124
-3.250674	looked	-0.22468211
-4.1399894	coal	-0.09378124
-3.6299012	couldnt	-0.27431378
-4.1399894	replenish	-0.09378124
-4.1399894	kept	-0.09378124
-4.1399894	coalbox	-0.09378124
-3.2950172	room	-0.16152574
-3.901431	surely	-0.19737034
-4.016763	shovel	-0.09378124
-4.016763	predicted	-0.09378124
-4.016763	necessary	-0.09378124
-3.3444085	part	-0.2524872
-4.1399894	wherefore	-0.09378124
-3.464106	white	-0.12600198
-3.901431	comforter	-0.09378124
-3.4001465	tried	-0.39925247
-2.728288	himself	-0.268015
-3.901431	candle	-0.09378124
-4.016763	effort	-0.09378124
-2.877963	being	-0.12204349
-3.464106	strong	-0.13080648
-4.1399894	imagination	-0.09378124
-4.1399894	failed	-0.09378124
-3.0513608	merry	-0.5138062
-3.250674	uncle	-0.4007431
-3.464106	god	-0.37026823
-3.6299012	save	-0.13729627
-2.956065	cried	-0.37402737
-3.6299012	cheerful	-0.1555772
-3.464106	nephew	-0.29000613
-4.016763	quickly	-0.09378124
-3.250674	first	-0.16039829
-4.1399894	intimation	-0.09378124
-4.016763	approach	-0.09378124
-4.016763	bah	-0.2400968
-3.5391397	humbug	-0.27431378
-4.016763	heated	-0.09378124
-3.901431	rapid	-0.09378124
-3.7447822	walking	-0.09378124
-3.7447822	frost	-0.09378124
-4.016763	glow	-0.09378124
-3.0513608	face	-0.26759228
-3.7447822	handsome	-0.09378124
-3.901431	sparkled	-0.1856619
-3.6299012	breath	-0.12600198
-3.901431	smoked	-0.09378124
-2.6918755	again	-0.3818051
-3.7447822	sure	-0.15526675
-2.9152608	do	-0.3970911
-3.250674	right	-0.21672621
-3.901431	reason	-0.14654808
-4.016763	youre	-0.09378124
-3.0513608	poor	-0.16424851
-2.956065	enough	-0.31895432
-3.025506	returned	-0.5278549
-3.901431	gaily	-0.09378124
-4.1399894	morose	-0.09378124
-3.6299012	rich	-0.09378124
-3.4001465	having	-0.11189941
-3.3444085	answer	-0.1528273
-3.4001465	ready	-0.18073846
-4.1399894	spur	-0.09378124
-3.5391397	moment	-0.13999699
-3.7447822	followed	-0.09378124
-4.1399894	cross	-0.09378124
-4.1399894	illustration	-0.09378124
-3.464106	else	-0.22316124
-3.464106	live	-0.25941393
-3.6299012	world	-0.23089668
-4.1399894	fools	-0.09378124
-4.016763	whats	-0.14654808
-3.6299012	christmastime	-0.14654808
-2.796709	time	-0.2905761
-4.1399894	paying	-0.09378124
-4.1399894	bills	-0.09378124
-3.6299012	money	-0.13729627
-3.901431	finding	-0.14654808
-3.7447822	yourself	-0.09378124
-3.7447822	older	-0.09378124
-3.901431	hour	-0.1951325
-4.1399894	richer	-0.09378124
-4.1399894	balancing	-0.09378124
-2.7680347	your	-0.14130239
-4.016763	books	-0.2400968
-4.1399894	item	-0.09378124
-3.2950172	em	-0.11936378
-2.7821352	through	-0.311846
-2.877963	round	-0.35115567
-4.016763	dozen	-0.16080616
-4.1399894	months	-0.09378124
-4.016763	presented	-0.09378124
-3.4001465	against	-0.20197271
-3.4001465	work	-0.14147721
-4.016763	indignantly	-0.09378124
-4.1399894	idiot	-0.09378124
-3.901431	goes	-0.09378124
-3.1396823	should	-0.2255406
-3.901431	boiled	-0.09378124
-3.6299012	pudding	-0.12230156
-3.901431	buried	-0.09378124
-4.1399894	stake	-0.09378124
-3.5391397	holly	-0.13080648
-3.2104416	heart	-0.21483424
-4.016763	pleaded	-0.09378124
-4.1399894	sternly	-0.09378124
-3.250674	let	-0.31415796
-3.7447822	mine	-0.16080616
-3.7447822	repeated	-0.14654808
-3.7447822	leave	-0.09378124
-3.250674	alone	-0.13398668
-3.2104416	may	-0.17627801
-3.2104416	has	-0.14966744
-3.464106	things	-0.36643058
-4.1399894	derived	-0.09378124
-4.1399894	profited	-0.09378124
-4.016763	dare	-0.1856619
-3.0788527	among	-0.3263049
-3.464106	rest	-0.14654808
-4.1399894	roundapart	-0.09378124
-4.1399894	veneration	-0.09378124
-4.1399894	due	-0.09378124
-4.1399894	sacred	-0.09378124
-4.1399894	origin	-0.09378124
-3.901431	belonging	-0.28333494
-4.016763	apart	-0.09378124
-4.1399894	thatas	-0.09378124
-3.1082034	kind	-0.33340445
-4.1399894	forgiving	-0.09378124
-4.1399894	charitable	-0.09378124
-3.464106	pleasant	-0.1555772
-3.0513608	long	-0.188009
-4.1399894	calendar	-0.09378124
-3.1396823	men	-0.2262083
-4.016763	women	-0.09378124
-4.1399894	seem	-0.09378124
-4.1399894	consent	-0.09378124
-4.1399894	shutup	-0.09378124
-3.464106	hearts	-0.12600198
-4.1399894	freely	-0.09378124
-3.3444085	think	-0.23943032
-3.2950172	below	-0.11936378
-3.7447822	really	-0.09378124
-4.1399894	fellowpassengers	-0.09378124
-3.901431	grave	-0.09378124
-2.877963	another	-0.14538606
-3.901431	race	-0.09378124
-3.7447822	creatures	-0.09378124
-3.5391397	bound	-0.09378124
-4.016763	journeys	-0.09378124
-4.1399894	scrap	-0.09378124
-3.7447822	gold	-0.09378124
-3.901431	silver	-0.09378124
-3.901431	pocket	-0.09378124
-3.2950172	believe	-0.24409509
-3.6299012	bless	-0.18270114
-4.1399894	involuntarily	-0.09378124
-4.1399894	applauded	-0.09378124
-4.016763	becoming	-0.09378124
-3.7447822	immediately	-0.09378124
-4.016763	sensible	-0.2400968
-4.1399894	impropriety	-0.09378124
-4.1399894	poked	-0.09378124
-4.1399894	extinguished	-0.09378124
-3.1082034	last	-0.207228
-4.1399894	frail	-0.09378124
-4.1399894	spark	-0.09378124
-3.3444085	sound	-0.11936378
-3.901431	youll	-0.09378124
-4.1399894	losing	-0.09378124
-3.7447822	situation	-0.20662442
-4.1399894	powerful	-0.09378124
-3.901431	speaker	-0.1856619
-3.1082034	sir	-0.30323625
-3.901431	added	-0.09378124
-3.7447822	wonder	-0.13729627
-4.016763	parliament	-0.09378124
-3.7447822	angry	-0.09378124
-3.901431	dine	-0.1856619
-3.0513608	us	-0.26846367
-3.5391397	tomorrow	-0.09378124
-4.1399894	himyes	-0.09378124
-3.1396823	indeed	-0.28225192
-2.9152608	went	-0.18841973
-3.6299012	whole	-0.113324925
-3.6299012	length	-0.20915504
-3.7447822	expression	-0.09378124
-4.1399894	extremity	-0.09378124
-3.1396823	why	-0.2484918
-3.6299012	get	-0.09378124
-3.901431	married	-0.09378124
-3.4001465	because	-0.16744514
-3.3444085	fell	-0.14147721
-3.5391397	love	-0.23382801
-4.016763	growled	-0.1856619
-4.016763	ridiculous	-0.09378124
-3.6299012	afternoon	-0.2898526
-4.1399894	nay	-0.09378124
-3.3444085	happened	-0.1711792
-3.250674	give	-0.20778914
-2.6918755	now	-0.25781238
-3.5391397	want	-0.13080648
-3.7447822	ask	-0.13729627
-3.7447822	cannot	-0.09378124
-3.6299012	friends	-0.09378124
-3.7447822	sorry	-0.16516928
-3.5391397	find	-0.20136619
-4.1399894	resolute	-0.09378124
-3.901431	quarrel	-0.09378124
-3.6299012	party	-0.09378124
-4.1399894	trial	-0.09378124
-4.1399894	homage	-0.09378124
-3.3444085	ill	-0.1328123
-4.016763	humour	-0.09378124
-3.464106	happy	-0.19207531
-3.0788527	left	-0.22470029
-3.2950172	word	-0.13378973
-3.901431	notwithstanding	-0.1856619
-4.1399894	outer	-0.09378124
-4.1399894	greetings	-0.09378124
-3.7447822	season	-0.09378124
-4.1399894	warmer	-0.09378124
-4.1399894	cordially	-0.09378124
-3.7447822	theres	-0.23541063
-3.5391397	fellow	-0.1555772
-3.901431	muttered	-0.16080616
-4.1399894	overheard	-0.09378124
-4.016763	fifteen	-0.09378124
-4.016763	shillings	-0.09378124
-4.1399894	week	-0.09378124
-3.6299012	wife	-0.24409509
-3.250674	family	-0.14764811
-4.1399894	talking	-0.09378124
-4.016763	retire	-0.09378124
-4.1399894	bedlam	-0.09378124
-4.1399894	lunatic	-0.09378124
-4.1399894	letting	-0.09378124
-2.978001	two	-0.19727173
-4.016763	portly	-0.09378124
-3.5391397	gentlemen	-0.09378124
-4.016763	behold	-0.09378124
-4.1399894	hats	-0.09378124
-2.8274117	off	-0.20860757
-4.1399894	papers	-0.09378124
-4.1399894	bowed	-0.09378124
-4.1399894	referring	-0.09378124
-4.1399894	list	-0.09378124
-3.7447822	pleasure	-0.13729627
-4.1399894	addressing	-0.09378124
-3.250674	mr	-0.4306159
-2.9351838	these	-0.13464658
-3.3444085	seven	-0.27431378
-3.1396823	replied	-0.6608201
-3.901431	ago	-0.09378124
-4.016763	liberality	-0.09378124
-3.0788527	well	-0.1756218
-4.1399894	represented	-0.09378124
-4.1399894	surviving	-0.09378124
-3.5391397	partner	-0.09378124
-4.1399894	presenting	-0.09378124
-4.016763	credentials	-0.09378124
-3.901431	certainly	-0.16080616
-4.1399894	kindred	-0.09378124
-3.2950172	spirits	-0.17627801
-4.1399894	ominous	-0.09378124
-4.1399894	frowned	-0.09378124
-3.6299012	shook	-0.13080648
-4.1399894	handed	-0.09378124
-4.1399894	festive	-0.09378124
-3.901431	pen	-0.09378124
-4.016763	usually	-0.09378124
-4.1399894	desirable	-0.09378124
-3.2950172	make	-0.14951113
-2.7680347	some	-0.11235868
-3.901431	slight	-0.09378124
-4.1399894	provision	-0.09378124
-4.1399894	destitute	-0.09378124
-4.016763	suffer	-0.09378124
-4.016763	greatly	-0.09378124
-3.7447822	present	-0.1635776
-4.016763	thousands	-0.2400968
-4.016763	common	-0.09378124
-4.1399894	necessaries	-0.09378124
-3.7447822	hundreds	-0.4082737
-4.1399894	comforts	-0.09378124
-4.016763	prisons	-0.1856619
-3.6299012	plenty	-0.5051837
-4.016763	laying	-0.09378124
-4.1399894	union	-0.09378124
-4.016763	workhouses	-0.2400968
-3.901431	demanded	-0.09378124
-3.1736224	still	-0.15411918
-4.1399894	operation	-0.09378124
-3.6299012	wish	-0.21260889
-4.1399894	treadmill	-0.09378124
-4.1399894	law	-0.09378124
-3.2104416	full	-0.24256857
-3.901431	vigour	-0.09378124
-3.6299012	afraid	-0.13080648
-3.2950172	something	-0.15057428
-4.1399894	occurred	-0.09378124
-4.016763	stop	-0.09378124
-4.1399894	useful	-0.09378124
-4.016763	glad	-0.1856619
-3.6299012	under	-0.2452443
-4.1399894	impression	-0.09378124
-3.5391397	scarcely	-0.116974786
-4.1399894	furnish	-0.09378124
-3.901431	christian	-0.09378124
-4.016763	cheer	-0.09378124
-3.6299012	body	-0.13729627
-4.1399894	multitude	-0.09378124
-3.7447822	few	-0.09378124
-3.901431	endeavouring	-0.28333494
-3.901431	raise	-0.14654808
-4.1399894	fund	-0.09378124
-4.016763	buy	-0.20662442
-3.901431	meat	-0.09378124
-3.901431	drink	-0.1856619
-3.6299012	means	-0.27655157
-4.016763	choose	-0.09378124
-4.016763	others	-0.09378124
-3.901431	keenly	-0.09378124
-3.5391397	felt	-0.22465184
-4.1399894	abundance	-0.09378124
-4.1399894	rejoices	-0.09378124
-4.1399894	anonymous	-0.09378124
-3.7447822	since	-0.09378124
-3.7447822	cant	-0.09378124
-4.1399894	afford	-0.09378124
-4.016763	idle	-0.09378124
-3.4001465	help	-0.14654808
-4.1399894	support	-0.09378124
-4.1399894	establishments	-0.09378124
-4.1399894	mentionedthey	-0.09378124
-4.016763	cost	-0.09378124
-3.250674	those	-0.13080648
-4.1399894	badly	-0.09378124
-3.3444085	rather	-0.16744514
-3.4001465	die	-0.3182995
-4.1399894	decrease	-0.2400968
-4.1399894	surplus	-0.1856619
-4.1399894	population	-0.2400968
-4.1399894	besidesexcuse	-0.09378124
-4.1399894	mei	-0.09378124
-3.1396823	observed	-0.20564006
-4.016763	understand	-0.09378124
-4.1399894	interfere	-0.09378124
-3.901431	peoples	-0.09378124
-4.1399894	occupies	-0.09378124
-4.1399894	constantly	-0.09378124
-3.901431	seeing	-0.16080616
-3.7447822	clearly	-0.14654808
-4.1399894	useless	-0.09378124
-4.1399894	pursue	-0.09378124
-4.1399894	withdrew	-0.09378124
-3.901431	resumed	-0.09378124
-4.1399894	labours	-0.09378124
-4.1399894	improved	-0.09378124
-3.6299012	opinion	-0.14654808
-4.016763	facetious	-0.09378124
-4.016763	temper	-0.09378124
-3.7447822	usual	-0.09378124
-4.1399894	meanwhile	-0.09378124
-3.7447822	darkness	-0.09378124
-4.1399894	thickened	-0.09378124
-3.7447822	ran	-0.09378124
-4.1399894	links	-0.09378124
-4.1399894	proffering	-0.09378124
-4.1399894	services	-0.09378124
-4.1399894	horses	-0.09378124
-4.1399894	carriages	-0.09378124
-3.6299012	conduct	-0.14654808
-3.901431	ancient	-0.09378124
-4.1399894	tower	-0.09378124
-3.5391397	church	-0.2452443
-3.3444085	whose	-0.09378124
-4.1399894	gruff	-0.09378124
-3.2950172	bell	-0.12823747
-4.016763	peeping	-0.09378124
-4.1399894	slily	-0.09378124
-4.1399894	gothic	-0.09378124
-3.7447822	window	-0.12823747
-4.016763	wall	-0.22649594
-3.4001465	became	-0.14654808
-3.7447822	invisible	-0.09378124
-4.016763	hours	-0.09378124
-3.901431	quarters	-0.09378124
-4.016763	clouds	-0.09378124
-4.016763	tremulous	-0.09378124
-4.1399894	vibrations	-0.09378124
-4.1399894	teeth	-0.09378124
-4.016763	chattering	-0.09378124
-4.016763	frozen	-0.09378124
-4.1399894	intense	-0.09378124
-4.1399894	main	-0.09378124
-3.5391397	corner	-0.1856619
-4.1399894	labourers	-0.09378124
-4.1399894	repairing	-0.09378124
-4.1399894	gaspipes	-0.09378124
-3.5391397	lighted	-0.09378124
-3.0788527	great	-0.12403902
-4.1399894	brazier	-0.09378124
-3.901431	ragged	-0.09378124
-3.464106	boys	-0.12600198
-4.1399894	gathered	-0.09378124
-4.1399894	warming	-0.09378124
-4.1399894	winking	-0.09378124
-3.901431	blaze	-0.09378124
-4.1399894	rapture	-0.09378124
-4.1399894	waterplug	-0.09378124
-4.1399894	solitude	-0.09378124
-4.1399894	overflowings	-0.09378124
-4.016763	suddenly	-0.09378124
-4.1399894	congealed	-0.09378124
-3.3444085	turned	-0.17786138
-4.1399894	misanthropic	-0.09378124
-4.1399894	ice	-0.09378124
-4.016763	brightness	-0.1856619
-3.901431	shops	-0.09378124
-4.1399894	sprigs	-0.09378124
-3.901431	berries	-0.09378124
-4.1399894	crackled	-0.09378124
-3.901431	lamp	-0.09378124
-4.016763	pale	-0.09378124
-3.6299012	faces	-0.09378124
-3.2104416	passed	-0.12600198
-4.016763	poulterers	-0.09378124
-4.016763	grocers	-0.1856619
-4.1399894	trades	-0.09378124
-4.1399894	splendid	-0.09378124
-3.901431	joke	-0.09378124
-3.6299012	glorious	-0.17829752
-4.1399894	pageant	-0.09378124
-3.2950172	next	-0.25162607
-3.6299012	impossible	-0.32455844
-3.5391397	dull	-0.09378124
-4.1399894	principles	-0.09378124
-4.1399894	sale	-0.09378124
-3.7447822	lord	-0.13729627
-4.1399894	mayor	-0.09378124
-4.1399894	stronghold	-0.09378124
-3.901431	mighty	-0.09378124
-4.016763	mansion	-0.09378124
-3.250674	house	-0.20822471
-3.6299012	gave	-0.16516928
-4.1399894	orders	-0.09378124
-3.6299012	fifty	-0.09378124
-4.1399894	cooks	-0.09378124
-4.1399894	butlers	-0.09378124
-4.1399894	mayors	-0.09378124
-4.1399894	household	-0.09378124
-4.1399894	tailor	-0.09378124
-3.4001465	whom	-0.20672971
-4.1399894	fined	-0.09378124
-3.464106	five	-0.2452443
-4.1399894	previous	-0.09378124
-4.1399894	monday	-0.09378124
-4.1399894	drunk	-0.09378124
-4.1399894	bloodthirsty	-0.09378124
-3.5391397	streets	-0.1573132
-3.901431	stirred	-0.09378124
-4.1399894	tomorrows	-0.09378124
-4.1399894	garret	-0.09378124
-3.1736224	while	-0.18805589
-4.1399894	lean	-0.09378124
-4.016763	baby	-0.14654808
-4.1399894	sallied	-0.09378124
-4.016763	beef	-0.09378124
-4.1399894	foggier	-0.09378124
-3.1736224	yet	-0.13755304
-4.1399894	colder	-0.09378124
-4.1399894	piercing	-0.09378124
-4.1399894	searching	-0.09378124
-4.1399894	dunstan	-0.09378124
-3.7447822	touch	-0.13729627
-3.6299012	instead	-0.32455844
-4.016763	using	-0.09378124
-3.7447822	familiar	-0.16080616
-4.1399894	weapons	-0.09378124
-3.901431	roared	-0.09378124
-4.1399894	lusty	-0.09378124
-4.016763	owner	-0.09378124
-4.1399894	scant	-0.09378124
-3.1396823	young	-0.3150187
-4.016763	gnawed	-0.09378124
-4.1399894	mumbled	-0.09378124
-4.016763	hungry	-0.09378124
-3.6299012	bones	-0.14654808
-4.1399894	stooped	-0.09378124
-4.1399894	regale	-0.09378124
-4.1399894	carol	-0.09378124
-4.1399894	dismay	-0.09378124
-4.016763	seized	-0.2400968
-4.1399894	ruler	-0.09378124
-4.1399894	energy	-0.09378124
-4.016763	action	-0.09378124
-4.1399894	singer	-0.09378124
-4.1399894	fled	-0.09378124
-4.016763	terror	-0.1856619
-4.016763	leaving	-0.09378124
-4.1399894	congenial	-0.09378124
-4.016763	shutting	-0.2400968
-4.1399894	arrived	-0.09378124
-4.016763	illwill	-0.09378124
-4.1399894	dismounted	-0.09378124
-3.901431	stool	-0.13729627
-4.1399894	tacitly	-0.09378124
-4.1399894	admitted	-0.09378124
-4.016763	fact	-0.1856619
-4.1399894	expectant	-0.09378124
-3.7447822	instantly	-0.09378124
-4.1399894	snuffed	-0.09378124
-4.1399894	hat	-0.09378124
-3.7447822	suppose	-0.21260889
-4.016763	convenient	-0.09378124
-3.901431	fair	-0.09378124
-3.901431	halfacrown	-0.1856619
-4.1399894	youd	-0.09378124
-3.4001465	used	-0.32007125
-3.901431	smiled	-0.09378124
-4.016763	faintly	-0.09378124
-4.016763	pay	-0.09378124
-4.1399894	wages	-0.09378124
-4.016763	excuse	-0.09378124
-4.1399894	picking	-0.09378124
-3.6299012	mans	-0.12600198
-4.1399894	twentyfifth	-0.09378124
-4.1399894	december	-0.09378124
-4.1399894	buttoning	-0.09378124
-4.016763	greatcoat	-0.09378124
-2.8962116	here	-0.27736083
-4.1399894	earlier	-0.09378124
-3.464106	morning	-0.1555772
-3.7447822	promised	-0.16080616
-3.2950172	walked	-0.12823747
-4.016763	growl	-0.09378124
-3.6299012	closed	-0.09378124
-4.1399894	twinkling	-0.09378124
-3.7447822	ends	-0.09378124
-4.1399894	dangling	-0.09378124
-3.901431	waist	-0.09378124
-4.1399894	boasted	-0.09378124
-4.1399894	slide	-0.09378124
-4.1399894	cornhill	-0.09378124
-3.6299012	end	-0.36595112
-4.016763	lane	-0.09378124
-3.6299012	twenty	-0.09378124
-3.6299012	times	-0.09378124
-4.016763	honour	-0.1856619
-4.016763	christmaseve	-0.09378124
-3.1396823	home	-0.2205125
-4.1399894	camden	-0.2400968
-3.901431	town	-0.09378124
-4.1399894	pelt	-0.09378124
-4.016763	blindmans	-0.28333494
-4.1399894	buff	-0.1856619
-3.3444085	took	-0.13398668
-3.7447822	melancholy	-0.09378124
-3.2950172	dinner	-0.13783322
-4.1399894	tavern	-0.09378124
-3.901431	read	-0.09378124
-4.1399894	newspapers	-0.09378124
-4.1399894	beguiled	-0.09378124
-3.901431	evening	-0.09378124
-4.1399894	bankers	-0.09378124
-3.901431	book	-0.09378124
-3.4001465	bed	-0.23733392
-4.016763	chambers	-0.09378124
-4.1399894	belonged	-0.09378124
-4.1399894	deceased	-0.09378124
-4.016763	gloomy	-0.09378124
-4.1399894	suite	-0.09378124
-3.7447822	rooms	-0.09378124
-4.1399894	lowering	-0.09378124
-4.1399894	pile	-0.09378124
-4.016763	building	-0.09378124
-3.6299012	yard	-0.09378124
-4.1399894	fancying	-0.09378124
-4.1399894	run	-0.09378124
-4.1399894	playing	-0.09378124
-4.1399894	hideandseek	-0.09378124
-3.6299012	forgotten	-0.09378124
-4.016763	dreary	-0.09378124
-3.464106	stone	-0.09378124
-4.1399894	fain	-0.09378124
-4.1399894	grope	-0.09378124
-3.464106	hung	-0.1856619
-3.464106	black	-0.09378124
-4.1399894	gateway	-0.09378124
-3.2950172	seemed	-0.37262395
-4.1399894	genius	-0.09378124
-3.901431	mournful	-0.09378124
-4.1399894	meditation	-0.09378124
-4.1399894	threshold	-0.1856619
-3.464106	particular	-0.13080648
-4.016763	knocker	-0.13729627
-4.1399894	except	-0.09378124
-3.464106	also	-0.09378124
-3.464106	seen	-0.15208222
-4.016763	during	-0.09378124
-4.1399894	residence	-0.09378124
-4.1399894	fancy	-0.09378124
-4.016763	london	-0.09378124
-4.1399894	includingwhich	-0.09378124
-3.901431	bold	-0.09378124
-4.1399894	wordthe	-0.09378124
-4.1399894	corporation	-0.09378124
-4.1399894	aldermen	-0.09378124
-4.1399894	livery	-0.09378124
-4.016763	borne	-0.09378124
-4.1399894	bestowed	-0.09378124
-4.1399894	sevenyearsdead	-0.09378124
-4.1399894	explain	-0.09378124
-4.016763	key	-0.09378124
-4.016763	lock	-0.09378124
-4.1399894	undergoing	-0.09378124
-4.1399894	intermediate	-0.09378124
-4.1399894	process	-0.09378124
-4.1399894	changenot	-0.09378124
-4.1399894	impenetrable	-0.09378124
-3.6299012	shadow	-0.16516928
-4.1399894	objects	-0.09378124
-3.6299012	bad	-0.13080648
-4.1399894	lobster	-0.09378124
-3.901431	cellar	-0.1856619
-4.016763	ferocious	-0.09378124
-3.4001465	look	-0.1328123
-3.5391397	ghostly	-0.09378124
-4.1399894	spectacles	-0.09378124
-4.016763	forehead	-0.09378124
-3.6299012	hair	-0.16080616
-4.016763	curiously	-0.09378124
-3.5391397	hot	-0.12600198
-3.5391397	wide	-0.23175834
-4.1399894	motionless	-0.09378124
-4.016763	livid	-0.09378124
-3.901431	colour	-0.09378124
-4.016763	horrible	-0.09378124
-3.6299012	horror	-0.09378124
-4.1399894	spite	-0.28333494
-4.1399894	control	-0.09378124
-4.1399894	fixedly	-0.09378124
-4.016763	phenomenon	-0.09378124
-4.016763	startled	-0.09378124
-3.901431	blood	-0.09378124
-3.901431	conscious	-0.22764844
-4.016763	terrible	-0.09378124
-4.016763	sensation	-0.09378124
-4.1399894	stranger	-0.09378124
-4.1399894	infancy	-0.09378124
-4.1399894	untrue	-0.09378124
-4.1399894	relinquished	-0.09378124
-4.1399894	sturdily	-0.09378124
-3.901431	pause	-0.09378124
-3.901431	moments	-0.09378124
-4.1399894	irresolution	-0.09378124
-3.6299012	shut	-0.21592762
-4.1399894	cautiously	-0.09378124
-3.0513608	behind	-0.23196898
-3.1082034	half	-0.14053787
-4.016763	expected	-0.09378124
-4.1399894	terrified	-0.09378124
-3.5391397	sight	-0.35438874
-4.016763	pigtail	-0.09378124
-4.1399894	sticking	-0.09378124
-3.901431	hall	-0.17128494
-4.1399894	screws	-0.09378124
-3.4001465	held	-0.19094484
-4.016763	pooh	-0.09378124
-4.1399894	bang	-0.09378124
-4.1399894	resounded	-0.09378124
-4.1399894	thunder	-0.09378124
-4.1399894	cask	-0.09378124
-3.901431	wine	-0.16080616
-4.016763	merchants	-0.09378124
-4.1399894	cellars	-0.09378124
-4.016763	separate	-0.09378124
-4.1399894	peal	-0.09378124
-4.016763	echoes	-0.09378124
-4.016763	frightened	-0.09378124
-4.016763	fastened	-0.09378124
-3.901431	across	-0.22764844
-4.016763	stairs	-0.09378124
-3.901431	slowly	-0.09378124
-2.8274117	too	-0.27374357
-4.1399894	trimming	-0.09378124
-3.901431	talk	-0.09378124
-4.1399894	vaguely	-0.09378124
-4.016763	driving	-0.09378124
-4.1399894	coach	-0.09378124
-3.901431	six	-0.09378124
-4.1399894	flight	-0.09378124
-3.901431	act	-0.1856619
-3.2104416	got	-0.17337683
-4.016763	hearse	-0.09378124
-4.1399894	staircase	-0.09378124
-3.5391397	taken	-0.09378124
-4.1399894	broadwise	-0.09378124
-4.1399894	splinterbar	-0.09378124
-3.025506	towards	-0.40663654
-4.1399894	balustrades	-0.09378124
-3.6299012	easy	-0.14654808
-4.1399894	width	-0.09378124
-4.1399894	spare	-0.09378124
-3.3444085	perhaps	-0.1528273
-4.1399894	locomotive	-0.09378124
-3.7447822	gloom	-0.09378124
-4.1399894	halfadozen	-0.09378124
-4.1399894	gaslamps	-0.09378124
-3.5391397	wouldnt	-0.18388721
-4.1399894	entry	-0.09378124
-3.6299012	pretty	-0.09378124
-4.1399894	dip	-0.09378124
-4.016763	caring	-0.09378124
-4.1399894	button	-0.09378124
-3.901431	cheap	-0.1856619
-3.4001465	heavy	-0.13729627
-4.016763	recollection	-0.2400968
-3.7447822	desire	-0.4082737
-4.016763	sittingroom	-0.09378124
-4.016763	bedroom	-0.09378124
-4.016763	lumberroom	-0.09378124
-4.016763	table	-0.23541063
-4.1399894	sofa	-0.09378124
-4.1399894	grate	-0.09378124
-4.1399894	spoon	-0.09378124
-4.1399894	basin	-0.09378124
-4.016763	saucepan	-0.14654808
-3.901431	gruel	-0.09378124
-4.1399894	hob	-0.09378124
-4.1399894	closet	-0.09378124
-4.016763	dressinggown	-0.16080616
-3.7447822	hanging	-0.14654808
-4.1399894	suspicious	-0.09378124
-3.901431	attitude	-0.09378124
-4.1399894	fireguard	-0.09378124
-3.901431	shoes	-0.09378124
-3.901431	fish	-0.09378124
-3.901431	baskets	-0.09378124
-4.1399894	washingstand	-0.09378124
-3.6299012	legs	-0.1555772
-4.1399894	poker	-0.09378124
-4.1399894	satisfied	-0.09378124
-3.901431	locked	-0.16080616
-4.016763	double	-0.2400968
-4.1399894	custom	-0.09378124
-3.7447822	thus	-0.09378124
-4.1399894	secured	-0.09378124
-3.464106	surprise	-0.267147
-4.1399894	cravat	-0.09378124
-4.016763	slippers	-0.09378124
-4.016763	nightcap	-0.2400968
-3.6299012	take	-0.11936378
-4.1399894	bitter	-0.09378124
-4.016763	obliged	-0.32455844
-3.901431	sit	-0.14654808
-3.464106	close	-0.19294259
-4.016763	brood	-0.09378124
-4.1399894	extract	-0.09378124
-4.016763	least	-0.09378124
-4.1399894	handful	-0.09378124
-4.016763	fuel	-0.09378124
-4.1399894	fireplace	-0.09378124
-4.016763	built	-0.09378124
-4.016763	dutch	-0.09378124
-4.1399894	merchant	-0.09378124
-4.1399894	paved	-0.09378124
-4.1399894	quaint	-0.09378124
-4.1399894	tiles	-0.09378124
-4.1399894	designed	-0.09378124
-4.1399894	illustrate	-0.09378124
-4.1399894	scriptures	-0.09378124
-4.1399894	cains	-0.09378124
-4.1399894	abels	-0.09378124
-4.1399894	pharaohs	-0.09378124
-3.901431	daughters	-0.09378124
-4.1399894	queens	-0.09378124
-4.1399894	sheba	-0.09378124
-4.1399894	angelic	-0.09378124
-4.1399894	messengers	-0.09378124
-4.016763	descending	-0.09378124
-4.016763	feather	-0.09378124
-4.016763	beds	-0.09378124
-4.1399894	abrahams	-0.09378124
-4.1399894	belshazzars	-0.09378124
-4.1399894	apostles	-0.09378124
-3.5391397	putting	-0.09378124
-4.016763	sea	-0.22764844
-4.1399894	butterboats	-0.09378124
-4.016763	figures	-0.09378124
-4.1399894	attract	-0.09378124
-3.5391397	thoughts	-0.12600198
-4.1399894	prophets	-0.09378124
-4.1399894	rod	-0.09378124
-4.016763	swallowed	-0.09378124
-3.1736224	each	-0.3701092
-4.016763	smooth	-0.09378124
-4.1399894	tile	-0.09378124
-4.016763	blank	-0.09378124
-3.6299012	power	-0.18073846
-3.5391397	shape	-0.09378124
-4.1399894	picture	-0.09378124
-4.1399894	surface	-0.09378124
-4.1399894	disjointed	-0.09378124
-3.901431	fragments	-0.28333494
-4.1399894	copy	-0.09378124
-3.901431	several	-0.09378124
-4.016763	turns	-0.09378124
-3.901431	threw	-0.09378124
-3.7447822	chair	-0.13080648
-4.016763	glance	-0.09378124
-4.1399894	disused	-0.09378124
-4.1399894	communicated	-0.09378124
-3.7447822	chamber	-0.09378124
-4.1399894	highest	-0.09378124
-4.016763	astonishment	-0.09378124
-3.4001465	strange	-0.14249451
-4.1399894	inexplicable	-0.09378124
-3.7447822	dread	-0.16080616
-4.1399894	swing	-0.09378124
-4.1399894	swung	-0.09378124
-3.901431	softly	-0.09378124
-4.1399894	outset	-0.09378124
-3.5391397	soon	-0.09378124
-4.1399894	rang	-0.09378124
-4.016763	loudly	-0.09378124
-4.1399894	lasted	-0.09378124
-4.1399894	minute	-0.09378124
-4.016763	bells	-0.1856619
-3.901431	ceased	-0.16080616
-4.1399894	begun	-0.09378124
-3.2104416	together	-0.13398668
-3.901431	succeeded	-0.1856619
-4.1399894	clanking	-0.09378124
-3.7447822	noise	-0.09378124
-3.5391397	deep	-0.09378124
-3.6299012	person	-0.09378124
-4.016763	dragging	-0.09378124
-3.6299012	chain	-0.09378124
-4.1399894	casks	-0.09378124
-3.7447822	remembered	-0.13729627
-3.464106	heard	-0.1765772
-3.7447822	ghosts	-0.09378124
-4.016763	haunted	-0.09378124
-4.1399894	described	-0.09378124
-3.901431	chains	-0.09378124
-4.016763	flew	-0.09378124
-4.1399894	booming	-0.09378124
-4.1399894	louder	-0.09378124
-4.1399894	floors	-0.09378124
-3.4001465	straight	-0.1528273
-3.901431	wont	-0.09378124
-3.5391397	changed	-0.09378124
-4.016763	dying	-0.09378124
-4.1399894	flame	-0.09378124
-4.1399894	leaped	-0.09378124
-3.6299012	waistcoat	-0.09378124
-4.1399894	tights	-0.09378124
-3.901431	boots	-0.1856619
-4.016763	tassels	-0.09378124
-3.901431	latter	-0.09378124
-4.1399894	bristling	-0.09378124
-4.1399894	coatskirts	-0.09378124
-3.7447822	drew	-0.09378124
-3.7447822	clasped	-0.09378124
-3.901431	middle	-0.09378124
-3.901431	wound	-0.09378124
-4.016763	tail	-0.09378124
-4.016763	closely	-0.09378124
-4.1399894	cashboxes	-0.09378124
-4.016763	keys	-0.09378124
-4.1399894	padlocks	-0.09378124
-4.1399894	ledgers	-0.09378124
-3.901431	deeds	-0.09378124
-4.1399894	purses	-0.09378124
-4.1399894	wrought	-0.09378124
-3.901431	transparent	-0.09378124
-3.7447822	observing	-0.16080616
-3.1736224	looking	-0.18084456
-4.1399894	buttons	-0.09378124
-4.1399894	coat	-0.09378124
-4.016763	bowels	-0.09378124
-3.901431	believed	-0.28333494
-3.1396823	until	-0.291013
-3.464106	nor	-0.14654808
-4.016763	phantom	-0.11189941
-3.6299012	standing	-0.09378124
-4.1399894	chilling	-0.09378124
-4.1399894	deathcold	-0.09378124
-4.1399894	marked	-0.09378124
-4.1399894	texture	-0.09378124
-4.1399894	folded	-0.09378124
-4.1399894	kerchief	-0.09378124
-4.016763	wrapper	-0.09378124
-4.1399894	incredulous	-0.09378124
-4.1399894	fought	-0.09378124
-3.901431	senses	-0.28333494
-4.1399894	caustic	-0.09378124
-4.1399894	muchmarleys	-0.09378124
-3.901431	raising	-0.1856619
-4.1399894	shade	-0.09378124
-4.1399894	substituted	-0.09378124
-4.1399894	appropriate	-0.09378124
-3.1736224	jacob	-0.34959057
-4.1399894	youcan	-0.09378124
-4.1399894	doubtfully	-0.09378124
-3.7447822	question	-0.09378124
-3.901431	whether	-0.09378124
-4.016763	condition	-0.09378124
-4.1399894	involve	-0.09378124
-4.1399894	necessity	-0.09378124
-4.1399894	embarrassing	-0.09378124
-3.901431	explanation	-0.1856619
-3.464106	side	-0.1528273
-4.1399894	evidence	-0.09378124
-4.1399894	reality	-0.09378124
-4.1399894	affects	-0.09378124
-4.1399894	disorder	-0.09378124
-4.1399894	stomach	-0.09378124
-3.901431	makes	-0.1856619
-4.1399894	cheats	-0.09378124
-4.1399894	undigested	-0.09378124
-3.901431	bit	-0.1856619
-4.1399894	blot	-0.09378124
-4.1399894	mustard	-0.09378124
-4.1399894	crumb	-0.09378124
-4.1399894	cheese	-0.09378124
-4.1399894	fragment	-0.09378124
-4.1399894	underdone	-0.09378124
-4.1399894	potato	-0.09378124
-4.016763	gravy	-0.09378124
-4.016763	habit	-0.09378124
-4.1399894	cracking	-0.09378124
-4.1399894	jokes	-0.09378124
-3.7447822	feel	-0.09378124
-4.1399894	waggish	-0.09378124
-3.7447822	truth	-0.09378124
-4.016763	smart	-0.09378124
-4.1399894	distracting	-0.09378124
-4.016763	attention	-0.09378124
-4.016763	keeping	-0.09378124
-4.1399894	spectres	-0.09378124
-4.016763	disturbed	-0.09378124
-4.1399894	marrow	-0.09378124
-4.016763	staring	-0.1856619
-4.016763	fixed	-0.1856619
-4.1399894	glazed	-0.2400968
-3.901431	silence	-0.16080616
-4.1399894	deuce	-0.2400968
-3.901431	awful	-0.09378124
-3.901431	provided	-0.09378124
-4.1399894	infernal	-0.09378124
-4.016763	atmosphere	-0.2400968
-4.016763	case	-0.16080616
-4.016763	skirts	-0.09378124
-4.016763	agitated	-0.09378124
-4.1399894	vapour	-0.09378124
-4.016763	oven	-0.09378124
-4.1399894	toothpick	-0.09378124
-4.1399894	returning	-0.09378124
-4.016763	charge	-0.09378124
-4.1399894	assigned	-0.09378124
-4.1399894	wishing	-0.09378124
-3.901431	second	-0.12600198
-4.1399894	divert	-0.09378124
-4.016763	visions	-0.09378124
-4.1399894	stony	-0.09378124
-4.1399894	gaze	-0.09378124
-4.1399894	swallow	-0.09378124
-4.1399894	persecuted	-0.09378124
-4.1399894	legion	-0.09378124
-4.1399894	goblins	-0.09378124
-4.016763	creation	-0.09378124
-3.2104416	tell	-0.4342297
-2.978001	spirit	-0.28838798
-3.464106	raised	-0.16516928
-4.016763	frightful	-0.09378124
-3.901431	cry	-0.28333494
-4.1399894	appalling	-0.09378124
-4.016763	tight	-0.09378124
-4.1399894	swoon	-0.09378124
-3.7447822	greater	-0.09378124
-4.1399894	bandage	-0.09378124
-3.901431	wear	-0.14654808
-4.1399894	indoors	-0.09378124
-3.901431	lower	-0.16080616
-4.1399894	jaw	-0.09378124
-4.016763	dropped	-0.09378124
-3.7447822	breast	-0.09378124
-3.901431	knees	-0.22764844
-3.901431	mercy	-0.1856619
-3.7447822	dreadful	-0.09378124
-4.016763	apparition	-0.09378124
-4.016763	trouble	-0.09378124
-3.901431	worldly	-0.09378124
-3.4001465	walk	-0.14654808
-3.901431	earth	-0.13729627
-4.1399894	required	-0.09378124
-4.016763	abroad	-0.09378124
-4.1399894	fellowmen	-0.09378124
-4.016763	travel	-0.09378124
-3.464106	far	-0.09378124
-3.4001465	forth	-0.12230156
-4.1399894	condemned	-0.09378124
-3.3444085	death	-0.14147721
-4.1399894	doomed	-0.09378124
-4.1399894	wander	-0.09378124
-4.1399894	worldoh	-0.09378124
-4.016763	woe	-0.09378124
-4.1399894	meand	-0.09378124
-4.1399894	witness	-0.09378124
-4.1399894	share	-0.09378124
-4.016763	shared	-0.09378124
-3.5391397	happiness	-0.17829752
-3.7447822	spectre	-0.11936378
-4.1399894	wrung	-0.09378124
-4.016763	shadowy	-0.09378124
-4.1399894	fettered	-0.09378124
-3.6299012	trembling	-0.17829752
-4.1399894	forged	-0.09378124
-4.016763	link	-0.09378124
-4.016763	girded	-0.09378124
-4.1399894	freewill	-0.09378124
-3.901431	wore	-0.09378124
-4.1399894	pattern	-0.09378124
-3.6299012	trembled	-0.14654808
-3.5391397	pursued	-0.27655157
-4.1399894	weight	-0.09378124
-4.1399894	coil	-0.09378124
-3.5391397	bear	-0.12600198
-4.1399894	christmaseves	-0.09378124
-4.1399894	laboured	-0.09378124
-4.1399894	ponderous	-0.09378124
-3.7447822	glanced	-0.09378124
-4.1399894	floor	-0.13729627
-4.016763	expectation	-0.09378124
-4.016763	surrounded	-0.09378124
-4.1399894	sixty	-0.09378124
-4.1399894	fathoms	-0.09378124
-3.6299012	iron	-0.09378124
-4.1399894	cable	-0.09378124
-4.1399894	imploringly	-0.09378124
-3.7447822	speak	-0.09378124
-3.901431	comfort	-0.09378124
-3.7447822	none	-0.09378124
-4.016763	comes	-0.09378124
-4.1399894	regions	-0.09378124
-3.464106	ebenezer	-0.35028175
-3.901431	conveyed	-0.1856619
-4.1399894	ministers	-0.09378124
-4.016763	kinds	-0.1856619
-4.1399894	permitted	-0.09378124
-3.901431	stay	-0.09378124
-4.1399894	linger	-0.09378124
-4.1399894	anywhere	-0.09378124
-4.1399894	countinghousemark	-0.09378124
-4.1399894	mein	-0.09378124
-4.1399894	roved	-0.09378124
-4.016763	narrow	-0.09378124
-4.1399894	limits	-0.09378124
-4.1399894	moneychanging	-0.09378124
-4.016763	hole	-0.09378124
-4.1399894	weary	-0.09378124
-3.7447822	lie	-0.09378124
-3.901431	whenever	-0.1856619
-3.901431	thoughtful	-0.09378124
-4.1399894	breeches	-0.09378124
-3.901431	pockets	-0.09378124
-4.1399894	pondering	-0.09378124
-4.016763	lifting	-0.2400968
-3.7447822	getting	-0.09378124
-3.7447822	slow	-0.09378124
-4.1399894	businesslike	-0.09378124
-3.901431	manner	-0.09378124
-4.016763	humility	-0.09378124
-4.1399894	deference	-0.09378124
-4.1399894	mused	-0.09378124
-4.016763	travelling	-0.09378124
-4.1399894	peace	-0.09378124
-4.016763	incessant	-0.09378124
-4.016763	torture	-0.09378124
-4.1399894	remorse	-0.09378124
-3.5391397	fast	-0.17829752
-4.1399894	wings	-0.09378124
-3.901431	quantity	-0.28333494
-4.016763	ground	-0.32007125
-4.1399894	hearing	-0.09378124
-3.2950172	set	-0.11936378
-4.1399894	clanked	-0.09378124
-4.1399894	hideously	-0.09378124
-4.1399894	ward	-0.09378124
-4.016763	justified	-0.2400968
-4.1399894	indicting	-0.09378124
-4.1399894	nuisance	-0.09378124
-4.1399894	captive	-0.09378124
-4.1399894	doubleironed	-0.09378124
-4.1399894	ages	-0.09378124
-4.016763	labour	-0.09378124
-4.016763	immortal	-0.09378124
-4.1399894	pass	-0.09378124
-4.1399894	eternity	-0.09378124
-4.1399894	susceptible	-0.09378124
-4.1399894	developed	-0.09378124
-3.901431	working	-0.09378124
-4.016763	kindly	-0.09378124
-4.1399894	sphere	-0.09378124
-3.901431	mortal	-0.09378124
-3.5391397	short	-0.09378124
-3.7447822	vast	-0.09378124
-4.1399894	usefulness	-0.09378124
-4.016763	space	-0.1856619
-4.016763	regret	-0.09378124
-4.1399894	amends	-0.09378124
-4.1399894	lifes	-0.09378124
-4.016763	opportunities	-0.09378124
-4.1399894	misused	-0.09378124
-4.016763	faltered	-0.09378124
-3.901431	apply	-0.09378124
-4.1399894	wringing	-0.09378124
-4.1399894	mankind	-0.09378124
-4.016763	welfare	-0.09378124
-4.1399894	charity	-0.09378124
-4.1399894	forbearance	-0.09378124
-3.901431	benevolence	-0.09378124
-4.1399894	dealings	-0.09378124
-4.016763	drop	-0.09378124
-3.7447822	water	-0.09378124
-4.016763	comprehensive	-0.09378124
-4.1399894	ocean	-0.09378124
-3.6299012	arms	-0.09378124
-4.016763	cause	-0.09378124
-4.1399894	unavailing	-0.09378124
-4.016763	grief	-0.09378124
-4.1399894	flung	-0.09378124
-4.016763	heavily	-0.09378124
-4.016763	rolling	-0.09378124
-3.2950172	most	-0.19290622
-4.1399894	crowds	-0.09378124
-4.1399894	fellowbeings	-0.09378124
-3.901431	blessed	-0.09378124
-4.1399894	star	-0.09378124
-3.901431	led	-0.09378124
-4.016763	wise	-0.09378124
-4.1399894	abode	-0.09378124
-3.7447822	homes	-0.09378124
-4.016763	conducted	-0.09378124
-4.1399894	dismayed	-0.09378124
-4.016763	rate	-0.09378124
-4.1399894	quake	-0.09378124
-3.901431	exceedingly	-0.1856619
-3.7447822	nearly	-0.09378124
-4.1399894	flowery	-0.09378124
-4.1399894	pray	-0.09378124
-4.1399894	appear	-0.09378124
-3.3444085	beside	-0.29771757
-4.1399894	agreeable	-0.09378124
-3.7447822	idea	-0.14654808
-4.1399894	shivered	-0.09378124
-4.1399894	wiped	-0.09378124
-4.1399894	perspiration	-0.09378124
-4.016763	brow	-0.28333494
-4.1399894	penance	-0.09378124
-3.6299012	tonight	-0.16516928
-4.1399894	warn	-0.09378124
-3.7447822	chance	-0.16516928
-3.250674	hope	-0.18073846
-4.1399894	escaping	-0.09378124
-4.016763	fate	-0.09378124
-4.1399894	procuring	-0.09378124
-4.1399894	thankee	-0.1856619
-4.1399894	countenance	-0.09378124
-3.901431	almost	-0.09378124
-4.1399894	mentioned	-0.09378124
-4.1399894	faltering	-0.09378124
-4.1399894	ii	-0.09378124
-3.7447822	id	-0.14654808
-4.1399894	visits	-0.09378124
-4.1399894	shun	-0.09378124
-4.016763	path	-0.09378124
-4.1399894	tread	-0.09378124
-4.1399894	expect	-0.2400968
-4.1399894	tolls	-0.09378124
-4.016763	hinted	-0.09378124
-4.016763	third	-0.09378124
-4.016763	stroke	-0.1856619
-3.5391397	twelve	-0.1555772
-4.1399894	vibrate	-0.09378124
-3.901431	sake	-0.16080616
-3.901431	remember	-0.13729627
-3.4001465	between	-0.12600198
-3.5391397	words	-0.14147721
-4.1399894	jaws	-0.09378124
-3.6299012	brought	-0.1856619
-4.1399894	ventured	-0.09378124
-3.5391397	found	-0.14826044
-3.901431	supernatural	-0.09378124
-4.016763	visitor	-0.09378124
-4.1399894	confronting	-0.09378124
-4.1399894	erect	-0.09378124
-3.6299012	arm	-0.16516928
-4.1399894	backward	-0.09378124
-4.016763	step	-0.09378124
-3.250674	itself	-0.116974786
-4.016763	reached	-0.09378124
-4.1399894	beckoned	-0.09378124
-4.1399894	paces	-0.09378124
-3.901431	nearer	-0.1856619
-4.1399894	obedience	-0.09378124
-3.901431	fear	-0.09378124
-4.1399894	confused	-0.09378124
-4.1399894	noises	-0.09378124
-4.1399894	incoherent	-0.09378124
-4.016763	sounds	-0.09378124
-4.1399894	lamentation	-0.09378124
-4.1399894	wailings	-0.09378124
-4.016763	inexpressibly	-0.09378124
-4.016763	sorrowful	-0.09378124
-4.1399894	selfaccusatory	-0.09378124
-3.901431	listening	-0.09378124
-3.6299012	joined	-0.19737034
-4.1399894	dirge	-0.09378124
-4.1399894	floated	-0.09378124
-4.1399894	desperate	-0.09378124
-4.1399894	curiosity	-0.09378124
-3.7447822	filled	-0.16080616
-4.016763	wandering	-0.09378124
-4.1399894	hither	-0.09378124
-4.1399894	thither	-0.09378124
-3.901431	restless	-0.09378124
-4.1399894	haste	-0.09378124
-4.016763	moaning	-0.09378124
-4.1399894	guilty	-0.09378124
-4.1399894	governments	-0.09378124
-4.1399894	linked	-0.09378124
-3.6299012	free	-0.09378124
-4.1399894	personally	-0.09378124
-4.016763	lives	-0.09378124
-3.7447822	monstrous	-0.09378124
-4.1399894	safe	-0.09378124
-4.016763	attached	-0.2400968
-4.016763	ankle	-0.09378124
-4.1399894	piteously	-0.09378124
-4.1399894	unable	-0.09378124
-4.1399894	assist	-0.09378124
-3.7447822	wretched	-0.09378124
-4.1399894	infant	-0.09378124
-4.1399894	doorstep	-0.09378124
-3.901431	misery	-0.09378124
-3.901431	sought	-0.1856619
-4.016763	matters	-0.09378124
-3.901431	lost	-0.09378124
-3.7447822	faded	-0.14654808
-3.5391397	mist	-0.09378124
-4.1399894	enshrouded	-0.09378124
-3.7447822	voices	-0.09378124
-4.016763	examined	-0.09378124
-3.6299012	entered	-0.13729627
-4.1399894	bolts	-0.09378124
-4.016763	undisturbed	-0.09378124
-4.1399894	syllable	-0.09378124
-3.901431	emotion	-0.09378124
-4.1399894	undergone	-0.09378124
-4.1399894	fatigues	-0.09378124
-4.1399894	glimpse	-0.09378124
-4.016763	conversation	-0.09378124
-4.1399894	lateness	-0.09378124
-4.016763	need	-0.2400968
-4.1399894	repose	-0.09378124
-4.1399894	undressing	-0.09378124
-4.016763	asleep	-0.09378124
-3.901431	instant	-0.09378124
-4.016763	awoke	-0.09378124
-4.1399894	distinguish	-0.09378124
-4.1399894	opaque	-0.09378124
-3.901431	walls	-0.09378124
-4.1399894	pierce	-0.09378124
-4.1399894	ferret	-0.09378124
-4.1399894	chimes	-0.09378124
-3.7447822	four	-0.09378124
-3.901431	listened	-0.16080616
-4.016763	eight	-0.09378124
-4.1399894	regularly	-0.09378124
-3.1736224	past	-0.2550938
-4.016763	clock	-0.1528273
-3.7447822	wrong	-0.22764844
-4.1399894	icicle	-0.09378124
-4.1399894	works	-0.09378124
-3.6299012	touched	-0.09378124
-3.901431	spring	-0.09378124
-4.1399894	repeater	-0.09378124
-4.016763	correct	-0.09378124
-4.1399894	preposterous	-0.09378124
-3.901431	pulse	-0.09378124
-3.7447822	beat	-0.09378124
-3.901431	isnt	-0.17128494
-3.901431	possible	-0.09378124
-4.1399894	slept	-0.09378124
-3.901431	sun	-0.09378124
-4.1399894	noon	-0.09378124
-4.016763	alarming	-0.09378124
-4.1399894	scrambled	-0.2400968
-4.1399894	groped	-0.09378124
-4.1399894	rub	-0.09378124
-4.1399894	sleeve	-0.09378124
-4.016763	extremely	-0.09378124
-3.6299012	running	-0.14654808
-4.1399894	fro	-0.2400968
-3.7447822	making	-0.14654808
-4.1399894	stir	-0.09378124
-4.016763	unquestionably	-0.09378124
-4.1399894	beaten	-0.09378124
-3.464106	bright	-0.11936378
-4.016763	possession	-0.2400968
-3.901431	relief	-0.1856619
-4.1399894	exchange	-0.09378124
-4.016763	order	-0.09378124
-3.901431	become	-0.09378124
-4.1399894	united	-0.09378124
-4.1399894	states	-0.09378124
-4.1399894	security	-0.09378124
-3.901431	count	-0.09378124
-4.1399894	perplexed	-0.09378124
-4.016763	endeavoured	-0.09378124
-4.1399894	bothered	-0.09378124
-4.016763	resolved	-0.22764844
-4.1399894	mature	-0.09378124
-4.1399894	inquiry	-0.09378124
-4.016763	dream	-0.09378124
-4.016763	released	-0.09378124
-4.1399894	position	-0.09378124
-4.1399894	problem	-0.09378124
-4.016763	worked	-0.09378124
-3.5391397	lay	-0.16080616
-3.5391397	state	-0.13729627
-4.1399894	chime	-0.09378124
-4.1399894	sudden	-0.09378124
-4.1399894	warned	-0.09378124
-4.1399894	visitation	-0.09378124
-4.1399894	tolled	-0.09378124
-4.1399894	awake	-0.09378124
-4.1399894	considering	-0.09378124
-3.901431	sleep	-0.09378124
-3.5391397	heaven	-0.13080648
-4.1399894	wisest	-0.09378124
-4.1399894	resolution	-0.09378124
-3.901431	quarter	-0.13729627
-4.1399894	sunk	-0.09378124
-4.1399894	doze	-0.09378124
-4.016763	unconsciously	-0.09378124
-3.901431	missed	-0.09378124
-3.7447822	broke	-0.09378124
-4.016763	ear	-0.2400968
-3.7447822	ding	-0.4037397
-4.016763	dong	-0.27655157
-4.1399894	counting	-0.09378124
-4.1399894	triumphantly	-0.09378124
-4.016763	sounded	-0.09378124
-4.016763	hollow	-0.09378124
-4.1399894	flashed	-0.09378124
-3.901431	curtains	-0.18073846
-4.016763	drawn	-0.16080616
-4.016763	aside	-0.09378124
-3.901431	addressed	-0.09378124
-4.016763	starting	-0.1856619
-4.1399894	halfrecumbent	-0.09378124
-4.1399894	unearthly	-0.09378124
-4.016763	elbow	-0.09378124
-4.1399894	figurelike	-0.09378124
-3.2950172	child	-0.16637102
-4.016763	viewed	-0.09378124
-4.1399894	medium	-0.09378124
-4.016763	appearance	-0.09378124
-4.1399894	receded	-0.09378124
-4.016763	view	-0.09378124
-4.1399894	diminished	-0.09378124
-4.1399894	childs	-0.09378124
-4.1399894	proportions	-0.09378124
-3.7447822	neck	-0.16080616
-4.016763	age	-0.09378124
-4.016763	wrinkle	-0.09378124
-4.1399894	tenderest	-0.09378124
-4.1399894	bloom	-0.09378124
-4.1399894	skin	-0.09378124
-4.1399894	muscular	-0.09378124
-3.7447822	hold	-0.09378124
-4.016763	uncommon	-0.09378124
-4.1399894	strength	-0.09378124
-4.1399894	delicately	-0.09378124
-4.1399894	formed	-0.09378124
-4.016763	upper	-0.09378124
-3.901431	members	-0.1856619
-3.6299012	bare	-0.09378124
-4.1399894	tunic	-0.09378124
-4.1399894	purest	-0.09378124
-4.1399894	lustrous	-0.09378124
-3.901431	belt	-0.09378124
-4.1399894	sheen	-0.09378124
-4.016763	beautiful	-0.09378124
-4.1399894	branch	-0.09378124
-3.6299012	fresh	-0.09378124
-3.6299012	green	-0.09378124
-4.1399894	singular	-0.09378124
-4.1399894	contradiction	-0.09378124
-4.1399894	emblem	-0.09378124
-3.6299012	dress	-0.09378124
-3.901431	trimmed	-0.09378124
-3.901431	summer	-0.09378124
-4.1399894	flowers	-0.09378124
-4.016763	strangest	-0.09378124
-4.1399894	crown	-0.09378124
-4.1399894	sprung	-0.09378124
-3.3444085	clear	-0.14249451
-4.1399894	jet	-0.09378124
-3.7447822	visible	-0.09378124
-4.1399894	doubtless	-0.09378124
-4.016763	occasion	-0.09378124
-4.1399894	duller	-0.09378124
-4.016763	extinguisher	-0.09378124
-3.6299012	cap	-0.19737034
-4.1399894	increasing	-0.09378124
-4.016763	steadiness	-0.09378124
-4.016763	quality	-0.09378124
-4.1399894	glittered	-0.09378124
-4.016763	figure	-0.09378124
-4.1399894	fluctuated	-0.09378124
-4.1399894	distinctness	-0.09378124
-4.1399894	leg	-0.09378124
-3.901431	pair	-0.5051837
-4.1399894	dissolving	-0.09378124
-4.1399894	parts	-0.09378124
-4.1399894	outline	-0.09378124
-4.1399894	wherein	-0.09378124
-4.016763	melted	-0.09378124
-3.025506	away	-0.20751154
-4.016763	distinct	-0.09378124
-4.1399894	foretold	-0.09378124
-4.1399894	soft	-0.09378124
-3.901431	gentle	-0.09378124
-4.1399894	singularly	-0.09378124
-4.1399894	observant	-0.09378124
-4.1399894	dwarfish	-0.09378124
-4.1399894	stature	-0.09378124
-3.250674	told	-0.2001871
-3.6299012	anybody	-0.13729627
-4.1399894	special	-0.09378124
-4.016763	begged	-0.09378124
-3.901431	covered	-0.09378124
-3.7447822	exclaimed	-0.40772852
-4.1399894	passions	-0.09378124
-4.016763	force	-0.09378124
-4.1399894	trains	-0.09378124
-4.1399894	reverently	-0.09378124
-4.1399894	disclaimed	-0.09378124
-4.1399894	intention	-0.09378124
-4.1399894	offend	-0.09378124
-4.1399894	wilfully	-0.09378124
-4.1399894	bonneted	-0.09378124
-4.016763	period	-0.2400968
-4.1399894	inquire	-0.09378124
-4.016763	expressed	-0.09378124
-3.6299012	thinking	-0.13729627
-4.016763	unbroken	-0.09378124
-4.1399894	conducive	-0.09378124
-4.1399894	reclamation	-0.09378124
-4.1399894	heed	-0.09378124
-3.7447822	gently	-0.09378124
-4.1399894	rise	-0.09378124
-4.016763	vain	-0.09378124
-4.1399894	plead	-0.09378124
-4.1399894	adapted	-0.09378124
-4.1399894	pedestrian	-0.09378124
-3.901431	purposes	-0.09378124
-4.1399894	thermometer	-0.09378124
-4.1399894	freezing	-0.09378124
-4.1399894	clad	-0.09378124
-4.016763	lightly	-0.09378124
-4.1399894	grasp	-0.09378124
-4.1399894	womans	-0.09378124
-4.1399894	resisted	-0.09378124
-3.7447822	rose	-0.09378124
-3.5391397	robe	-0.12230156
-4.1399894	supplication	-0.09378124
-4.1399894	remonstrated	-0.09378124
-4.1399894	liable	-0.09378124
-3.7447822	fall	-0.16080616
-4.1399894	upheld	-0.09378124
-3.7447822	spoken	-0.09378124
-4.016763	country	-0.09378124
-4.016763	road	-0.09378124
-4.016763	fields	-0.09378124
-3.901431	either	-0.09378124
-4.1399894	entirely	-0.09378124
-3.901431	vanished	-0.09378124
-4.1399894	vestige	-0.09378124
-3.7447822	winter	-0.09378124
-4.1399894	clasping	-0.09378124
-4.016763	bred	-0.09378124
-3.2950172	boy	-0.3327092
-4.1399894	gazed	-0.09378124
-4.016763	mildly	-0.09378124
-4.1399894	instantaneous	-0.09378124
-4.016763	sense	-0.2400968
-3.901431	feeling	-0.09378124
-4.1399894	thousand	-0.09378124
-4.1399894	odours	-0.09378124
-4.1399894	floating	-0.09378124
-3.901431	connected	-0.28333494
-3.901431	hopes	-0.09378124
-4.1399894	joys	-0.09378124
-4.016763	cares	-0.09378124
-4.1399894	lip	-0.09378124
-4.1399894	unusual	-0.09378124
-4.016763	catching	-0.09378124
-4.1399894	pimple	-0.09378124
-3.901431	lead	-0.19737034
-4.016763	recollect	-0.1856619
-4.1399894	fervour	-0.2400968
-4.1399894	blindfold	-0.2400968
-4.1399894	recognising	-0.09378124
-3.901431	gate	-0.09378124
-4.1399894	post	-0.09378124
-4.016763	tree	-0.09378124
-4.1399894	markettown	-0.09378124
-4.1399894	bridge	-0.09378124
-4.1399894	winding	-0.09378124
-4.1399894	river	-0.09378124
-4.1399894	shaggy	-0.09378124
-4.1399894	ponies	-0.09378124
-4.1399894	trotting	-0.09378124
-4.1399894	backs	-0.09378124
-4.1399894	gigs	-0.09378124
-3.901431	carts	-0.1856619
-4.1399894	driven	-0.09378124
-4.1399894	farmers	-0.09378124
-4.1399894	shouted	-0.09378124
-4.016763	broad	-0.09378124
-3.7447822	music	-0.14654808
-4.1399894	crisp	-0.09378124
-3.1082034	laughed	-0.15411918
-3.464106	shadows	-0.364057
-4.016763	consciousness	-0.09378124
-4.1399894	jocund	-0.09378124
-4.1399894	travellers	-0.09378124
-4.1399894	named	-0.09378124
-4.016763	rejoiced	-0.09378124
-4.1399894	bounds	-0.09378124
-4.1399894	glisten	-0.09378124
-4.1399894	leap	-0.09378124
-4.1399894	gladness	-0.09378124
-4.016763	parted	-0.09378124
-4.1399894	crossroads	-0.09378124
-4.1399894	byways	-0.09378124
-4.1399894	school	-0.09378124
-4.1399894	deserted	-0.09378124
-4.016763	neglected	-0.09378124
-4.1399894	sobbed	-0.09378124
-4.1399894	highroad	-0.09378124
-4.1399894	wellremembered	-0.09378124
-4.016763	approached	-0.09378124
-4.1399894	brick	-0.09378124
-4.1399894	weathercock	-0.09378124
-4.1399894	surmounted	-0.09378124
-4.1399894	cupola	-0.09378124
-3.901431	roof	-0.09378124
-3.7447822	broken	-0.16080616
-4.1399894	fortunes	-0.09378124
-4.1399894	spacious	-0.09378124
-4.1399894	damp	-0.09378124
-4.016763	mossy	-0.09378124
-4.1399894	gates	-0.09378124
-4.1399894	decayed	-0.09378124
-4.1399894	fowls	-0.09378124
-4.1399894	clucked	-0.09378124
-4.1399894	strutted	-0.09378124
-4.1399894	stables	-0.09378124
-4.1399894	coachhouses	-0.09378124
-4.1399894	sheds	-0.09378124
-4.016763	overrun	-0.09378124
-3.901431	grass	-0.1856619
-4.1399894	retentive	-0.09378124
-4.016763	entering	-0.09378124
-4.1399894	glancing	-0.09378124
-4.016763	doors	-0.09378124
-4.016763	poorly	-0.09378124
-4.1399894	furnished	-0.09378124
-4.1399894	earthly	-0.09378124
-4.1399894	savour	-0.09378124
-4.1399894	chilly	-0.09378124
-4.1399894	bareness	-0.09378124
-4.1399894	associated	-0.09378124
-3.901431	somehow	-0.09378124
-4.1399894	candlelight	-0.2400968
-4.016763	eat	-0.09378124
-3.7447822	opened	-0.09378124
-4.016763	disclosed	-0.09378124
-4.1399894	barer	-0.09378124
-4.016763	lines	-0.2400968
-3.901431	plain	-0.09378124
-3.901431	deal	-0.1856619
-4.016763	forms	-0.09378124
-4.1399894	desks	-0.09378124
-4.016763	lonely	-0.09378124
-3.901431	reading	-0.09378124
-3.464106	near	-0.09378124
-4.1399894	feeble	-0.09378124
-3.6299012	form	-0.14654808
-4.1399894	wept	-0.09378124
-3.6299012	self	-0.11936378
-4.016763	latent	-0.09378124
-4.1399894	echo	-0.09378124
-4.1399894	squeak	-0.09378124
-4.1399894	scuffle	-0.09378124
-4.1399894	mice	-0.09378124
-4.1399894	panelling	-0.09378124
-4.1399894	drip	-0.09378124
-4.1399894	halfthawed	-0.09378124
-4.1399894	waterspout	-0.09378124
-4.1399894	sigh	-0.09378124
-4.1399894	leafless	-0.09378124
-4.1399894	boughs	-0.09378124
-4.1399894	despondent	-0.09378124
-4.1399894	poplar	-0.09378124
-4.1399894	swinging	-0.09378124
-4.016763	empty	-0.09378124
-4.1399894	storehouse	-0.09378124
-4.1399894	clicking	-0.09378124
-4.1399894	softening	-0.09378124
-4.1399894	freer	-0.09378124
-4.1399894	passage	-0.09378124
-3.901431	tears	-0.1856619
-3.901431	younger	-0.09378124
-3.901431	foreign	-0.09378124
-4.016763	garments	-0.09378124
-4.1399894	wonderfully	-0.09378124
-4.016763	real	-0.09378124
-4.1399894	axe	-0.09378124
-4.016763	stuck	-0.09378124
-4.1399894	leading	-0.09378124
-4.1399894	bridle	-0.09378124
-4.1399894	ass	-0.09378124
-3.901431	laden	-0.1856619
-4.1399894	wood	-0.09378124
-3.901431	ali	-0.4082737
-4.1399894	baba	-0.22764844
-4.016763	ecstasy	-0.28333494
-4.016763	honest	-0.09378124
-3.3444085	yes	-0.27736083
-4.016763	yonder	-0.09378124
-4.1399894	valentine	-0.09378124
-4.016763	wild	-0.09378124
-3.7447822	brother	-0.14654808
-4.1399894	orson	-0.09378124
-4.1399894	drawers	-0.09378124
-4.1399894	damascus	-0.09378124
-4.1399894	sultans	-0.09378124
-4.1399894	groom	-0.09378124
-4.016763	upside	-0.2400968
-4.1399894	genii	-0.09378124
-4.1399894	serve	-0.09378124
-3.901431	im	-0.20915504
-4.1399894	princess	-0.09378124
-4.1399894	expending	-0.09378124
-4.016763	earnestness	-0.09378124
-4.016763	subjects	-0.09378124
-4.016763	extraordinary	-0.09378124
-3.5391397	laughing	-0.17829752
-4.1399894	crying	-0.09378124
-4.1399894	heightened	-0.09378124
-4.016763	excited	-0.09378124
-4.1399894	parrot	-0.09378124
-3.7447822	yellow	-0.09378124
-4.1399894	lettuce	-0.09378124
-3.901431	growing	-0.09378124
-3.6299012	top	-0.22764844
-4.016763	robin	-0.28333494
-4.1399894	crusoe	-0.1856619
-4.1399894	sailing	-0.09378124
-4.1399894	island	-0.09378124
-4.1399894	dreaming	-0.09378124
-3.6299012	wasnt	-0.09378124
-4.1399894	friday	-0.09378124
-4.1399894	creek	-0.09378124
-4.1399894	halloa	-0.09378124
-4.1399894	hoop	-0.09378124
-4.1399894	halloo	-0.09378124
-4.1399894	rapidity	-0.09378124
-4.1399894	transition	-0.09378124
-4.1399894	character	-0.09378124
-4.016763	pity	-0.09378124
-4.016763	former	-0.47068647
-4.1399894	drying	-0.09378124
-4.1399894	cuff	-0.09378124
-3.7447822	late	-0.09378124
-3.901431	matter	-0.14654808
-3.901431	singing	-0.09378124
-3.6299012	given	-0.13080648
-3.464106	thats	-0.1819641
-3.901431	thoughtfully	-0.09378124
-4.1399894	waved	-0.09378124
-4.016763	saying	-0.09378124
-3.7447822	grew	-0.09378124
-4.1399894	larger	-0.09378124
-4.1399894	darker	-0.09378124
-4.1399894	dirty	-0.09378124
-4.1399894	panels	-0.09378124
-4.016763	shrunk	-0.09378124
-4.016763	cracked	-0.09378124
-4.1399894	plaster	-0.09378124
-4.016763	ceiling	-0.09378124
-4.016763	naked	-0.09378124
-4.1399894	laths	-0.09378124
-3.7447822	shown	-0.14654808
-3.901431	jolly	-0.09378124
-4.016763	holidays	-0.09378124
-4.1399894	despairingly	-0.09378124
-3.6299012	shaking	-0.19737034
-4.1399894	anxiously	-0.09378124
-3.464106	girl	-0.13398668
-4.1399894	darting	-0.09378124
-2.617185	her	-0.13195236
-4.016763	kissing	-0.09378124
-3.7447822	bring	-0.20915504
-3.901431	clapping	-0.1856619
-2.956065	tiny	-0.7803575
-4.1399894	bending	-0.09378124
-3.4001465	laugh	-0.3404393
-4.1399894	fan	-0.2400968
-4.1399894	brimful	-0.09378124
-4.016763	glee	-0.09378124
-4.016763	kinder	-0.09378124
-4.016763	sent	-0.09378124
-4.016763	opening	-0.09378124
-4.1399894	merriest	-0.09378124
-2.7543776	she	-0.26268154
-4.016763	clapped	-0.09378124
-4.1399894	tiptoe	-0.09378124
-4.1399894	embrace	-0.09378124
-4.1399894	drag	-0.09378124
-4.016763	childish	-0.09378124
-4.016763	eagerness	-0.09378124
-4.1399894	loath	-0.09378124
-3.901431	accompanied	-0.09378124
-4.1399894	box	-0.09378124
-4.1399894	schoolmaster	-0.09378124
-3.901431	glared	-0.09378124
-4.1399894	condescension	-0.09378124
-3.901431	sister	-0.09378124
-4.1399894	veriest	-0.09378124
-4.1399894	shivering	-0.09378124
-3.5391397	best	-0.13080648
-4.016763	parlour	-0.17829752
-4.1399894	maps	-0.09378124
-4.1399894	celestial	-0.09378124
-4.1399894	terrestrial	-0.09378124
-4.1399894	globes	-0.09378124
-4.1399894	waxy	-0.09378124
-3.901431	produced	-0.09378124
-4.1399894	decanter	-0.09378124
-4.1399894	block	-0.09378124
-4.016763	cake	-0.2400968
-4.1399894	administered	-0.09378124
-4.1399894	instalments	-0.09378124
-4.1399894	dainties	-0.09378124
-4.016763	sending	-0.09378124
-4.016763	meagre	-0.09378124
-4.1399894	servant	-0.09378124
-4.016763	offer	-0.09378124
-4.016763	glass	-0.1856619
-4.1399894	postboy	-0.09378124
-4.016763	thanked	-0.09378124
-4.1399894	tap	-0.09378124
-4.016763	tasted	-0.09378124
-4.1399894	trunk	-0.09378124
-4.1399894	tied	-0.09378124
-4.1399894	chaise	-0.09378124
-3.901431	bade	-0.09378124
-4.1399894	goodbye	-0.09378124
-4.1399894	willingly	-0.09378124
-4.1399894	drove	-0.09378124
-4.1399894	garden	-0.09378124
-4.1399894	sweep	-0.09378124
-4.016763	quick	-0.09378124
-4.016763	wheels	-0.09378124
-4.1399894	dashing	-0.09378124
-4.1399894	hoar	-0.09378124
-3.901431	leaves	-0.1856619
-4.1399894	evergreens	-0.09378124
-4.1399894	spray	-0.09378124
-4.1399894	delicate	-0.09378124
-3.7447822	creature	-0.09378124
-3.901431	withered	-0.09378124
-4.1399894	gainsay	-0.09378124
-4.1399894	forbid	-0.09378124
-3.6299012	true	-0.09378124
-4.1399894	uneasy	-0.09378124
-4.1399894	briefly	-0.09378124
-4.1399894	thoroughfares	-0.09378124
-4.1399894	passengers	-0.09378124
-4.1399894	repassed	-0.09378124
-4.1399894	coaches	-0.09378124
-4.1399894	battled	-0.09378124
-4.1399894	strife	-0.09378124
-4.1399894	tumult	-0.09378124
-4.1399894	dressing	-0.09378124
-4.016763	certain	-0.09378124
-4.1399894	apprenticed	-0.09378124
-4.1399894	welsh	-0.09378124
-4.1399894	wig	-0.09378124
-3.5391397	sitting	-0.13729627
-3.250674	high	-0.116974786
-4.016763	desk	-0.09378124
-4.1399894	inches	-0.09378124
-4.1399894	taller	-0.09378124
-4.016763	knocked	-0.09378124
-4.016763	excitement	-0.09378124
-3.464106	fezziwig	-0.16246724
-3.7447822	alive	-0.09378124
-3.6299012	laid	-0.09378124
-4.1399894	rubbed	-0.09378124
-4.016763	adjusted	-0.09378124
-4.016763	capacious	-0.09378124
-4.1399894	organ	-0.09378124
-3.901431	comfortable	-0.1856619
-4.1399894	oily	-0.09378124
-3.7447822	fat	-0.09378124
-3.901431	jovial	-0.09378124
-4.016763	yo	-0.09378124
-4.016763	ho	-0.09378124
-3.6299012	dick	-0.34349835
-4.016763	grown	-0.09378124
-4.016763	briskly	-0.09378124
-4.1399894	fellowprentice	-0.09378124
-4.1399894	wilkins	-0.09378124
-4.016763	lets	-0.2400968
-4.016763	shutters	-0.09378124
-4.1399894	clap	-0.09378124
-4.1399894	jack	-0.09378124
-4.1399894	robinson	-0.09378124
-4.016763	fellows	-0.09378124
-4.1399894	charged	-0.09378124
-4.1399894	shuttersone	-0.09378124
-4.1399894	threehad	-0.09378124
-4.1399894	placesfour	-0.09378124
-4.1399894	sixbarred	-0.09378124
-4.1399894	pinned	-0.09378124
-4.1399894	emseven	-0.09378124
-4.1399894	nineand	-0.09378124
-4.1399894	panting	-0.09378124
-4.1399894	racehorses	-0.09378124
-4.1399894	hilliho	-0.09378124
-4.1399894	skipping	-0.09378124
-4.1399894	agility	-0.09378124
-4.016763	lads	-0.09378124
-4.1399894	lots	-0.09378124
-4.1399894	chirrup	-0.09378124
-4.016763	cleared	-0.1856619
-4.1399894	movable	-0.09378124
-4.1399894	packed	-0.09378124
-4.1399894	dismissed	-0.09378124
-4.1399894	public	-0.09378124
-4.1399894	evermore	-0.09378124
-4.016763	swept	-0.2400968
-4.1399894	watered	-0.09378124
-4.1399894	lamps	-0.09378124
-4.016763	heaped	-0.09378124
-4.016763	snug	-0.09378124
-4.016763	dry	-0.09378124
-4.1399894	ballroom	-0.09378124
-4.1399894	winters	-0.09378124
-3.901431	fiddler	-0.09378124
-4.1399894	musicbook	-0.09378124
-4.016763	lofty	-0.09378124
-4.1399894	orchestra	-0.09378124
-4.1399894	tuned	-0.09378124
-4.1399894	stomachaches	-0.09378124
-3.1082034	mrs	-0.79149044
-4.1399894	substantial	-0.09378124
-3.901431	smile	-0.1856619
-3.901431	miss	-0.1856619
-4.016763	fezziwigs	-0.09378124
-4.016763	beaming	-0.09378124
-4.1399894	lovable	-0.09378124
-4.1399894	followers	-0.09378124
-4.1399894	employed	-0.09378124
-4.1399894	housemaid	-0.09378124
-4.1399894	cousin	-0.09378124
-4.1399894	baker	-0.09378124
-4.1399894	cook	-0.09378124
-3.6299012	brothers	-0.09378124
-4.1399894	milkman	-0.09378124
-4.016763	suspected	-0.2400968
-3.901431	board	-0.09378124
-4.016763	trying	-0.2400968
-3.7447822	hide	-0.09378124
-4.1399894	proved	-0.09378124
-3.7447822	ears	-0.09378124
-3.901431	pulled	-0.09378124
-4.016763	mistress	-0.2400968
-4.1399894	shyly	-0.09378124
-4.1399894	boldly	-0.09378124
-4.016763	gracefully	-0.09378124
-4.1399894	awkwardly	-0.09378124
-4.1399894	pushing	-0.09378124
-4.1399894	pulling	-0.09378124
-4.016763	couple	-0.09378124
-4.1399894	various	-0.09378124
-4.1399894	stages	-0.09378124
-4.1399894	affectionate	-0.09378124
-4.1399894	grouping	-0.09378124
-4.1399894	couples	-0.09378124
-4.1399894	bottom	-0.09378124
-4.1399894	result	-0.09378124
-3.7447822	dance	-0.09378124
-4.016763	plunged	-0.09378124
-4.1399894	pot	-0.09378124
-4.016763	porter	-0.09378124
-3.901431	especially	-0.09378124
-4.1399894	scorning	-0.09378124
-4.1399894	reappearance	-0.09378124
-4.1399894	dancers	-0.09378124
-4.016763	exhausted	-0.09378124
-4.1399894	shutter	-0.09378124
-4.1399894	brannew	-0.09378124
-4.1399894	perish	-0.09378124
-4.1399894	dances	-0.2400968
-3.901431	forfeits	-0.1856619
-4.1399894	negus	-0.09378124
-4.016763	roast	-0.2400968
-4.016763	mincepies	-0.09378124
-4.1399894	beer	-0.09378124
-4.016763	effect	-0.09378124
-4.1399894	artful	-0.09378124
-4.016763	dog	-0.09378124
-4.1399894	roger	-0.09378124
-4.1399894	de	-0.09378124
-4.1399894	coverley	-0.09378124
-4.1399894	stiff	-0.09378124
-4.016763	trifled	-0.09378124
-4.016763	notion	-0.2400968
-3.901431	twice	-0.09378124
-4.1399894	manyah	-0.09378124
-4.1399894	timesold	-0.09378124
-4.1399894	match	-0.09378124
-4.016763	worthy	-0.1856619
-4.1399894	term	-0.09378124
-3.901431	praise	-0.09378124
-4.1399894	higher	-0.09378124
-4.016763	use	-0.09378124
-4.1399894	positive	-0.09378124
-4.1399894	issue	-0.09378124
-4.1399894	calves	-0.09378124
-3.901431	shone	-0.09378124
-4.1399894	moons	-0.09378124
-4.1399894	advance	-0.09378124
-4.016763	bow	-0.09378124
-4.1399894	curtsy	-0.09378124
-4.1399894	corkscrew	-0.09378124
-4.1399894	threadtheneedle	-0.09378124
-4.1399894	cutcut	-0.09378124
-4.1399894	deftly	-0.09378124
-4.1399894	wink	-0.09378124
-4.1399894	stagger	-0.09378124
-4.016763	eleven	-0.09378124
-4.1399894	domestic	-0.09378124
-4.1399894	ball	-0.09378124
-4.016763	stations	-0.09378124
-4.1399894	individually	-0.09378124
-3.7447822	wished	-0.16080616
-3.7447822	everybody	-0.13729627
-4.1399894	retired	-0.09378124
-4.1399894	prentices	-0.09378124
-4.016763	counter	-0.09378124
-4.1399894	backshop	-0.09378124
-4.1399894	acted	-0.09378124
-4.1399894	wits	-0.09378124
-3.7447822	soul	-0.19737034
-3.7447822	scene	-0.19737034
-4.1399894	corroborated	-0.09378124
-4.016763	enjoyed	-0.09378124
-4.016763	underwent	-0.09378124
-4.1399894	agitation	-0.09378124
-4.1399894	burnt	-0.09378124
-4.1399894	silly	-0.09378124
-4.1399894	folks	-0.09378124
-4.016763	gratitude	-0.09378124
-4.1399894	echoed	-0.09378124
-4.1399894	listen	-0.2400968
-4.1399894	apprentices	-0.09378124
-4.1399894	spent	-0.09378124
-4.016763	pounds	-0.09378124
-4.1399894	deserves	-0.09378124
-4.1399894	remark	-0.09378124
-4.1399894	speaking	-0.09378124
-4.016763	render	-0.09378124
-4.016763	unhappy	-0.09378124
-4.016763	service	-0.09378124
-4.1399894	burdensome	-0.09378124
-4.1399894	toil	-0.09378124
-3.901431	lies	-0.09378124
-4.1399894	insignificant	-0.09378124
-4.1399894	add	-0.09378124
-4.1399894	gives	-0.09378124
-3.7447822	fortune	-0.09378124
-4.1399894	insisted	-0.09378124
-4.1399894	able	-0.2400968
-4.1399894	utterance	-0.09378124
-4.1399894	grows	-0.09378124
-4.1399894	immediate	-0.09378124
-4.1399894	prime	-0.09378124
-4.1399894	harsh	-0.09378124
-4.016763	rigid	-0.09378124
-4.016763	later	-0.2400968
-4.016763	signs	-0.2400968
-4.016763	avarice	-0.09378124
-4.016763	eager	-0.09378124
-4.1399894	greedy	-0.09378124
-4.016763	motion	-0.09378124
-3.901431	showed	-0.09378124
-3.901431	passion	-0.09378124
-4.1399894	root	-0.09378124
-4.1399894	mourning	-0.09378124
-4.016763	idol	-0.2400968
-4.1399894	displaced	-0.09378124
-4.1399894	grieve	-0.09378124
-4.1399894	rejoined	-0.09378124
-3.901431	golden	-0.09378124
-4.016763	evenhanded	-0.09378124
-4.016763	dealing	-0.09378124
-4.016763	poverty	-0.2400968
-4.1399894	professes	-0.09378124
-4.1399894	condemn	-0.09378124
-4.1399894	severity	-0.09378124
-4.1399894	pursuit	-0.09378124
-3.901431	wealth	-0.09378124
-4.1399894	merged	-0.09378124
-4.1399894	sordid	-0.09378124
-4.1399894	reproach	-0.09378124
-4.1399894	nobler	-0.09378124
-4.1399894	aspirations	-0.09378124
-4.016763	gain	-0.09378124
-4.1399894	engrosses	-0.09378124
-3.901431	retorted	-0.09378124
-4.016763	wiser	-0.09378124
-4.1399894	contract	-0.09378124
-4.016763	content	-0.1856619
-4.1399894	improve	-0.09378124
-3.7447822	patient	-0.09378124
-4.016763	industry	-0.09378124
-4.1399894	impatiently	-0.09378124
-4.1399894	tells	-0.09378124
-4.1399894	fraught	-0.09378124
-3.901431	release	-0.1856619
-4.1399894	altered	-0.09378124
-4.1399894	worth	-0.09378124
-3.7447822	value	-0.09378124
-4.016763	seek	-0.09378124
-4.1399894	try	-0.2400968
-4.1399894	win	-0.09378124
-4.1399894	ah	-0.19737034
-4.016763	yield	-0.09378124
-4.1399894	justice	-0.09378124
-4.016763	supposition	-0.09378124
-4.1399894	struggle	-0.09378124
-4.016763	gladly	-0.09378124
-3.5391397	knows	-0.09378124
-4.1399894	learned	-0.09378124
-4.016763	irresistible	-0.09378124
-3.7447822	today	-0.14654808
-3.7447822	yesterday	-0.16080616
-4.1399894	dowerless	-0.09378124
-4.1399894	girlyou	-0.09378124
-4.1399894	confidence	-0.09378124
-4.1399894	weigh	-0.09378124
-4.1399894	choosing	-0.09378124
-4.016763	false	-0.09378124
-4.1399894	guiding	-0.09378124
-4.016763	principle	-0.09378124
-4.1399894	repentance	-0.09378124
-4.016763	follow	-0.09378124
-4.1399894	maythe	-0.09378124
-4.016763	memory	-0.2400968
-4.1399894	willhave	-0.09378124
-4.1399894	pain	-0.09378124
-4.016763	brief	-0.09378124
-4.016763	dismiss	-0.2400968
-4.1399894	unprofitable	-0.09378124
-4.1399894	chosen	-0.09378124
-3.250674	show	-0.22167577
-3.5391397	delight	-0.13729627
-4.1399894	relentless	-0.09378124
-4.1399894	pinioned	-0.09378124
-4.1399894	forced	-0.09378124
-4.1399894	observe	-0.09378124
-4.1399894	comely	-0.09378124
-4.1399894	matron	-0.09378124
-3.901431	daughter	-0.09378124
-4.1399894	tumultuous	-0.09378124
-4.016763	unlike	-0.09378124
-4.1399894	celebrated	-0.09378124
-4.1399894	herd	-0.09378124
-4.1399894	poem	-0.09378124
-4.016763	forty	-0.09378124
-4.016763	conducting	-0.09378124
-3.5391397	themselves	-0.09378124
-4.1399894	consequences	-0.09378124
-4.1399894	uproarious	-0.09378124
-4.1399894	belief	-0.09378124
-4.1399894	contrary	-0.09378124
-3.464106	mother	-0.23876303
-3.464106	heartily	-0.20915504
-4.1399894	beginning	-0.09378124
-4.1399894	mingle	-0.09378124
-4.1399894	sports	-0.09378124
-4.1399894	pillaged	-0.09378124
-4.1399894	brigands	-0.09378124
-4.1399894	ruthlessly	-0.09378124
-4.016763	rude	-0.09378124
-4.1399894	crushed	-0.09378124
-4.1399894	braided	-0.09378124
-4.016763	torn	-0.1856619
-3.901431	precious	-0.09378124
-4.1399894	shoe	-0.09378124
-4.1399894	plucked	-0.09378124
-4.1399894	measuring	-0.09378124
-4.1399894	sport	-0.09378124
-4.016763	punishment	-0.2400968
-4.1399894	dearly	-0.09378124
-4.016763	questioned	-0.09378124
-4.1399894	lashes	-0.09378124
-4.1399894	downcast	-0.09378124
-4.1399894	blush	-0.09378124
-4.1399894	loose	-0.09378124
-4.016763	waves	-0.09378124
-4.1399894	inch	-0.09378124
-4.1399894	keepsake	-0.09378124
-4.1399894	price	-0.09378124
-4.016763	confess	-0.09378124
-4.1399894	lightest	-0.09378124
-4.1399894	licence	-0.09378124
-3.901431	knocking	-0.09378124
-4.1399894	rush	-0.09378124
-4.016763	ensued	-0.2400968
-4.016763	plundered	-0.09378124
-4.016763	centre	-0.2400968
-4.1399894	flushed	-0.09378124
-4.1399894	boisterous	-0.09378124
-4.016763	group	-0.09378124
-4.1399894	greet	-0.09378124
-4.1399894	attended	-0.09378124
-4.1399894	toys	-0.09378124
-4.1399894	presents	-0.09378124
-4.1399894	shouting	-0.09378124
-3.901431	struggling	-0.09378124
-4.1399894	onslaught	-0.09378124
-4.1399894	defenceless	-0.09378124
-4.1399894	scaling	-0.09378124
-3.901431	chairs	-0.1856619
-4.1399894	ladders	-0.09378124
-4.1399894	dive	-0.09378124
-4.1399894	despoil	-0.09378124
-4.1399894	brownpaper	-0.09378124
-4.1399894	parcels	-0.09378124
-4.1399894	hug	-0.09378124
-4.1399894	pummel	-0.09378124
-4.1399894	kick	-0.09378124
-4.1399894	irrepressible	-0.09378124
-4.1399894	affection	-0.09378124
-4.1399894	shouts	-0.09378124
-4.1399894	development	-0.09378124
-4.1399894	package	-0.09378124
-4.016763	received	-0.1856619
-4.1399894	announcement	-0.09378124
-4.1399894	dolls	-0.09378124
-4.1399894	fryingpan	-0.09378124
-4.016763	mouth	-0.09378124
-4.1399894	fictitious	-0.09378124
-3.7447822	turkey	-0.13729627
-4.1399894	glued	-0.09378124
-4.1399894	wooden	-0.09378124
-4.1399894	platter	-0.09378124
-4.016763	immense	-0.09378124
-4.1399894	alarm	-0.09378124
-4.016763	joy	-0.09378124
-4.1399894	indescribable	-0.09378124
-4.1399894	alike	-0.09378124
-4.1399894	degrees	-0.09378124
-4.1399894	emotions	-0.09378124
-4.1399894	stair	-0.09378124
-4.1399894	subsided	-0.09378124
-4.1399894	attentively	-0.09378124
-4.016763	leaning	-0.09378124
-4.1399894	fondly	-0.09378124
-4.1399894	fireside	-0.09378124
-4.016763	graceful	-0.09378124
-3.901431	promise	-0.09378124
-4.1399894	springtime	-0.09378124
-4.1399894	haggard	-0.09378124
-4.016763	dim	-0.09378124
-4.1399894	belle	-0.09378124
-4.016763	husband	-0.09378124
-4.016763	yours	-0.09378124
-4.016763	guess	-0.09378124
-4.1399894	tut	-0.09378124
-3.901431	inside	-0.09378124
-4.016763	remove	-0.2400968
-4.1399894	blame	-0.09378124
-4.1399894	wrestled	-0.09378124
-4.1399894	haunt	-0.09378124
-4.016763	longer	-0.2400968
-4.1399894	struggleif	-0.09378124
-4.1399894	resistance	-0.09378124
-4.1399894	adversaryscrooge	-0.09378124
-4.1399894	burning	-0.09378124
-4.1399894	dimly	-0.09378124
-4.1399894	connecting	-0.09378124
-4.016763	pressed	-0.2400968
-3.5391397	beneath	-0.1856619
-4.1399894	streamed	-0.09378124
-4.1399894	flood	-0.09378124
-4.016763	overcome	-0.09378124
-4.1399894	drowsiness	-0.09378124
-3.901431	further	-0.09378124
-3.6299012	parting	-0.09378124
-4.1399894	squeeze	-0.09378124
-4.1399894	relaxed	-0.09378124
-4.1399894	barely	-0.09378124
-4.1399894	reel	-0.09378124
-4.016763	sank	-0.09378124
-4.1399894	awaking	-0.09378124
-4.1399894	prodigiously	-0.09378124
-4.1399894	tough	-0.09378124
-4.1399894	snore	-0.09378124
-4.1399894	restored	-0.09378124
-4.1399894	nick	-0.09378124
-4.1399894	especial	-0.09378124
-3.6299012	holding	-0.09378124
-4.1399894	conference	-0.09378124
-4.1399894	messenger	-0.09378124
-4.1399894	dispatched	-0.09378124
-4.1399894	intervention	-0.09378124
-4.1399894	uncomfortably	-0.09378124
-4.016763	draw	-0.09378124
-3.7447822	lying	-0.09378124
-4.1399894	established	-0.09378124
-4.016763	lookout	-0.09378124
-4.1399894	challenge	-0.09378124
-3.901431	nervous	-0.09378124
-4.1399894	freeandeasy	-0.09378124
-4.1399894	plume	-0.09378124
-4.1399894	acquainted	-0.09378124
-4.016763	move	-0.09378124
-4.1399894	equal	-0.09378124
-4.016763	express	-0.09378124
-3.901431	range	-0.28333494
-4.1399894	capacity	-0.09378124
-4.1399894	adventure	-0.09378124
-4.1399894	pitchandtoss	-0.09378124
-4.1399894	manslaughter	-0.09378124
-4.1399894	extremes	-0.09378124
-4.1399894	tolerably	-0.09378124
-4.1399894	venturing	-0.09378124
-4.1399894	hardily	-0.09378124
-3.6299012	calling	-0.09378124
-4.1399894	field	-0.09378124
-4.1399894	appearances	-0.09378124
-4.1399894	rhinoceros	-0.09378124
-4.1399894	astonished	-0.09378124
-3.6299012	prepared	-0.26551986
-4.1399894	consequently	-0.09378124
-4.1399894	violent	-0.09378124
-4.016763	fit	-0.09378124
-3.7447822	minutes	-0.17128494
-4.016763	ten	-0.09378124
-4.1399894	core	-0.09378124
-4.1399894	proclaimed	-0.09378124
-4.1399894	powerless	-0.09378124
-3.901431	meant	-0.1856619
-4.1399894	apprehensive	-0.09378124
-4.1399894	interesting	-0.09378124
-4.1399894	spontaneous	-0.09378124
-4.1399894	combustion	-0.09378124
-4.1399894	consolation	-0.09378124
-3.6299012	however	-0.09378124
-4.1399894	thinkas	-0.09378124
-4.1399894	predicament	-0.09378124
-4.016763	ought	-0.2400968
-4.1399894	tooat	-0.09378124
-4.1399894	source	-0.09378124
-4.1399894	adjoining	-0.09378124
-3.901431	whence	-0.09378124
-4.1399894	tracing	-0.09378124
-4.1399894	shine	-0.09378124
-4.1399894	shuffled	-0.09378124
-4.016763	enter	-0.09378124
-4.1399894	obeyed	-0.09378124
-4.1399894	surprising	-0.09378124
-4.1399894	transformation	-0.09378124
-4.1399894	living	-0.09378124
-4.016763	perfect	-0.09378124
-4.1399894	grove	-0.09378124
-4.016763	gleaming	-0.09378124
-4.1399894	glistened	-0.09378124
-4.016763	mistletoe	-0.09378124
-4.016763	ivy	-0.09378124
-4.1399894	reflected	-0.09378124
-4.1399894	mirrors	-0.09378124
-4.1399894	scattered	-0.09378124
-4.016763	roaring	-0.09378124
-4.1399894	chimney	-0.09378124
-4.1399894	petrifaction	-0.09378124
-4.016763	hearth	-0.09378124
-4.1399894	throne	-0.09378124
-4.016763	turkeys	-0.2400968
-4.1399894	geese	-0.2400968
-3.7447822	game	-0.13729627
-4.1399894	poultry	-0.2400968
-4.1399894	brawn	-0.09378124
-4.1399894	joints	-0.09378124
-4.1399894	suckingpigs	-0.09378124
-4.1399894	wreaths	-0.09378124
-4.016763	sausages	-0.09378124
-4.1399894	plumpuddings	-0.09378124
-4.1399894	barrels	-0.09378124
-4.016763	oysters	-0.09378124
-4.1399894	redhot	-0.09378124
-3.901431	chestnuts	-0.14654808
-4.1399894	cherrycheeked	-0.09378124
-3.901431	apples	-0.09378124
-4.016763	juicy	-0.09378124
-3.901431	oranges	-0.09378124
-4.1399894	luscious	-0.09378124
-4.016763	pears	-0.09378124
-4.1399894	twelfthcakes	-0.09378124
-4.1399894	seething	-0.09378124
-4.1399894	bowls	-0.09378124
-4.016763	punch	-0.09378124
-4.016763	delicious	-0.09378124
-4.016763	steam	-0.2400968
-4.1399894	couch	-0.09378124
-4.1399894	giant	-0.09378124
-3.7447822	bore	-0.2400968
-4.016763	glowing	-0.09378124
-3.6299012	torch	-0.27655157
-4.1399894	plentys	-0.09378124
-4.1399894	horn	-0.09378124
-3.901431	shed	-0.09378124
-4.1399894	timidly	-0.09378124
-4.1399894	dogged	-0.09378124
-4.1399894	meet	-0.09378124
-4.1399894	clothed	-0.09378124
-4.016763	simple	-0.09378124
-4.1399894	mantle	-0.09378124
-4.1399894	bordered	-0.09378124
-4.1399894	fur	-0.09378124
-3.7447822	garment	-0.09378124
-4.1399894	loosely	-0.09378124
-4.1399894	disdaining	-0.09378124
-4.1399894	warded	-0.09378124
-4.016763	concealed	-0.09378124
-4.1399894	artifice	-0.09378124
-4.1399894	observable	-0.09378124
-4.1399894	ample	-0.09378124
-4.016763	folds	-0.09378124
-4.1399894	covering	-0.09378124
-4.1399894	wreath	-0.09378124
-4.016763	shining	-0.09378124
-4.1399894	icicles	-0.09378124
-4.1399894	curls	-0.09378124
-4.016763	genial	-0.09378124
-4.1399894	sparkling	-0.09378124
-4.1399894	cheery	-0.09378124
-4.1399894	unconstrained	-0.09378124
-4.1399894	demeanour	-0.09378124
-4.1399894	joyful	-0.09378124
-4.1399894	antique	-0.09378124
-4.1399894	scabbard	-0.09378124
-4.1399894	sword	-0.09378124
-4.1399894	sheath	-0.09378124
-4.016763	eaten	-0.09378124
-4.1399894	rust	-0.09378124
-3.7447822	meaning	-0.09378124
-4.016763	elder	-0.09378124
-4.016763	born	-0.09378124
-4.016763	eighteen	-0.09378124
-4.1399894	hundred	-0.09378124
-4.1399894	tremendous	-0.09378124
-4.1399894	provide	-0.09378124
-4.1399894	submissively	-0.09378124
-4.1399894	compulsion	-0.09378124
-4.1399894	learnt	-0.09378124
-4.016763	lesson	-0.09378124
-4.1399894	aught	-0.09378124
-4.016763	teach	-0.09378124
-4.016763	profit	-0.09378124
-4.1399894	pigs	-0.09378124
-4.1399894	pies	-0.09378124
-4.1399894	puddings	-0.09378124
-4.1399894	fruit	-0.09378124
-4.1399894	severe	-0.09378124
-4.016763	rough	-0.09378124
-4.016763	brisk	-0.09378124
-4.1399894	unpleasant	-0.09378124
-4.1399894	front	-0.09378124
-4.1399894	dwellings	-0.09378124
-4.1399894	tops	-0.09378124
-4.1399894	mad	-0.09378124
-4.1399894	plumping	-0.09378124
-4.1399894	splitting	-0.09378124
-4.1399894	artificial	-0.09378124
-4.1399894	snowstorms	-0.09378124
-4.1399894	housefronts	-0.09378124
-4.1399894	blacker	-0.09378124
-4.1399894	contrasting	-0.09378124
-4.016763	sheet	-0.09378124
-4.1399894	roofs	-0.09378124
-4.1399894	dirtier	-0.09378124
-4.1399894	deposit	-0.09378124
-4.1399894	ploughed	-0.09378124
-4.016763	furrows	-0.09378124
-4.1399894	waggons	-0.09378124
-3.901431	crossed	-0.09378124
-4.1399894	recrossed	-0.09378124
-4.1399894	branched	-0.09378124
-4.1399894	intricate	-0.09378124
-4.1399894	channels	-0.09378124
-4.1399894	trace	-0.09378124
-4.1399894	thick	-0.09378124
-4.016763	mud	-0.2400968
-4.1399894	icy	-0.09378124
-4.016763	sky	-0.09378124
-4.1399894	shortest	-0.09378124
-3.7447822	choked	-0.16080616
-4.016763	thawed	-0.09378124
-4.016763	heavier	-0.09378124
-4.1399894	particles	-0.09378124
-4.1399894	descended	-0.09378124
-4.1399894	shower	-0.09378124
-4.1399894	sooty	-0.09378124
-4.1399894	atoms	-0.09378124
-4.1399894	chimneys	-0.09378124
-4.1399894	britain	-0.09378124
-3.901431	caught	-0.09378124
-4.016763	blazing	-0.09378124
-4.1399894	climate	-0.09378124
-4.1399894	cheerfulness	-0.09378124
-4.1399894	clearest	-0.09378124
-4.1399894	brightest	-0.09378124
-4.1399894	diffuse	-0.09378124
-4.1399894	shovelling	-0.09378124
-4.1399894	housetops	-0.09378124
-4.1399894	parapets	-0.09378124
-4.1399894	exchanging	-0.09378124
-4.1399894	snowballbetternatured	-0.09378124
-4.1399894	missile	-0.09378124
-4.1399894	wordy	-0.09378124
-4.1399894	jestlaughing	-0.09378124
-4.1399894	fruiterers	-0.09378124
-4.1399894	radiant	-0.09378124
-4.1399894	glory	-0.09378124
-4.1399894	potbellied	-0.09378124
-4.1399894	shaped	-0.09378124
-4.1399894	waistcoats	-0.09378124
-4.1399894	lolling	-0.09378124
-4.016763	tumbling	-0.09378124
-4.1399894	apoplectic	-0.09378124
-4.1399894	opulence	-0.09378124
-4.1399894	brownfaced	-0.09378124
-4.1399894	broadgirthed	-0.09378124
-4.016763	spanish	-0.09378124
-4.1399894	onions	-0.09378124
-4.1399894	fatness	-0.09378124
-4.016763	growth	-0.09378124
-4.1399894	friars	-0.09378124
-4.1399894	shelves	-0.09378124
-4.1399894	wanton	-0.09378124
-4.1399894	slyness	-0.09378124
-3.901431	girls	-0.09378124
-4.1399894	demurely	-0.09378124
-4.1399894	hungup	-0.09378124
-3.901431	clustered	-0.1856619
-4.1399894	blooming	-0.09378124
-4.1399894	pyramids	-0.09378124
-4.1399894	bunches	-0.09378124
-4.1399894	grapes	-0.09378124
-4.1399894	shopkeepers	-0.09378124
-4.1399894	dangle	-0.09378124
-4.1399894	conspicuous	-0.09378124
-4.1399894	hooks	-0.09378124
-4.016763	mouths	-0.09378124
-4.1399894	gratis	-0.09378124
-4.1399894	piles	-0.09378124
-4.1399894	filberts	-0.09378124
-4.1399894	recalling	-0.09378124
-4.1399894	fragrance	-0.09378124
-4.1399894	walks	-0.09378124
-4.1399894	woods	-0.09378124
-4.1399894	shufflings	-0.09378124
-4.1399894	norfolk	-0.09378124
-4.1399894	biffins	-0.09378124
-4.1399894	squab	-0.09378124
-4.1399894	swarthy	-0.09378124
-3.901431	setting	-0.09378124
-4.1399894	lemons	-0.2400968
-4.1399894	compactness	-0.09378124
-4.016763	persons	-0.09378124
-4.1399894	urgently	-0.09378124
-4.1399894	entreating	-0.09378124
-4.1399894	beseeching	-0.09378124
-4.1399894	paper	-0.09378124
-4.1399894	bags	-0.09378124
-4.1399894	choice	-0.09378124
-4.016763	fruits	-0.09378124
-4.016763	bowl	-0.09378124
-4.1399894	stagnantblooded	-0.09378124
-4.016763	gasping	-0.09378124
-4.1399894	passionless	-0.09378124
-4.1399894	gaps	-0.09378124
-4.1399894	glimpses	-0.09378124
-4.016763	scales	-0.09378124
-4.1399894	twine	-0.09378124
-4.1399894	roller	-0.09378124
-3.3444085	company	-0.11936378
-4.1399894	canisters	-0.09378124
-4.1399894	rattled	-0.09378124
-4.1399894	juggling	-0.09378124
-4.1399894	tricks	-0.09378124
-4.1399894	blended	-0.09378124
-4.1399894	scents	-0.09378124
-3.901431	tea	-0.09378124
-4.1399894	coffee	-0.09378124
-4.016763	grateful	-0.09378124
-4.1399894	raisins	-0.09378124
-4.1399894	plentiful	-0.09378124
-4.1399894	rare	-0.09378124
-4.1399894	almonds	-0.09378124
-4.016763	sticks	-0.2400968
-4.1399894	cinnamon	-0.09378124
-4.1399894	spices	-0.09378124
-4.1399894	candied	-0.09378124
-4.1399894	caked	-0.09378124
-4.1399894	spotted	-0.09378124
-4.1399894	molten	-0.09378124
-4.1399894	sugar	-0.09378124
-4.1399894	coldest	-0.09378124
-4.1399894	lookerson	-0.09378124
-4.1399894	faint	-0.09378124
-4.1399894	subsequently	-0.09378124
-4.1399894	bilious	-0.09378124
-4.1399894	figs	-0.09378124
-4.1399894	moist	-0.09378124
-4.1399894	pulpy	-0.09378124
-4.1399894	french	-0.09378124
-4.1399894	plums	-0.09378124
-4.016763	blushed	-0.09378124
-4.1399894	modest	-0.09378124
-4.1399894	tartness	-0.09378124
-4.1399894	highlydecorated	-0.09378124
-4.1399894	boxes	-0.09378124
-4.1399894	customers	-0.09378124
-3.901431	hurried	-0.09378124
-4.1399894	hopeful	-0.09378124
-4.1399894	tumbled	-0.09378124
-4.1399894	crashing	-0.09378124
-4.1399894	wicker	-0.09378124
-4.1399894	wildly	-0.09378124
-4.1399894	purchases	-0.09378124
-4.1399894	fetch	-0.09378124
-4.1399894	committed	-0.09378124
-4.1399894	mistakes	-0.09378124
-4.1399894	grocer	-0.09378124
-4.1399894	frank	-0.09378124
-4.1399894	polished	-0.09378124
-4.1399894	aprons	-0.09378124
-4.016763	worn	-0.09378124
-4.016763	general	-0.09378124
-4.1399894	inspection	-0.09378124
-4.1399894	daws	-0.09378124
-4.1399894	peck	-0.09378124
-4.1399894	steeples	-0.09378124
-4.1399894	chapel	-0.09378124
-4.1399894	flocking	-0.09378124
-3.7447822	clothes	-0.09378124
-4.1399894	gayest	-0.09378124
-4.1399894	emerged	-0.09378124
-4.1399894	scores	-0.09378124
-4.1399894	bystreets	-0.09378124
-4.1399894	lanes	-0.09378124
-4.1399894	nameless	-0.09378124
-4.1399894	turnings	-0.09378124
-4.1399894	innumerable	-0.09378124
-4.1399894	carrying	-0.09378124
-4.016763	dinners	-0.09378124
-3.901431	bakers	-0.09378124
-4.1399894	revellers	-0.09378124
-3.901431	interest	-0.1856619
-4.1399894	doorway	-0.09378124
-4.1399894	covers	-0.09378124
-4.1399894	bearers	-0.09378124
-4.1399894	sprinkled	-0.09378124
-4.1399894	incense	-0.09378124
-4.1399894	dinnercarriers	-0.09378124
-4.1399894	jostled	-0.09378124
-4.1399894	drops	-0.09378124
-4.016763	goodhumour	-0.09378124
-4.1399894	directly	-0.09378124
-4.016763	shame	-0.09378124
-3.6299012	christmasday	-0.22316124
-4.1399894	shadowing	-0.09378124
-4.1399894	progress	-0.09378124
-4.016763	cooking	-0.09378124
-4.1399894	blotch	-0.09378124
-4.016763	wet	-0.09378124
-4.1399894	peculiar	-0.09378124
-4.016763	flavour	-0.09378124
-4.1399894	sprinkle	-0.09378124
-4.1399894	needs	-0.09378124
-4.1399894	beings	-0.09378124
-4.1399894	worlds	-0.09378124
-4.1399894	cramp	-0.09378124
-4.1399894	innocent	-0.09378124
-4.1399894	enjoyment	-0.09378124
-4.1399894	deprive	-0.09378124
-4.1399894	dining	-0.09378124
-4.016763	seventh	-0.2400968
-4.1399894	places	-0.09378124
-4.1399894	forgive	-0.2400968
-4.1399894	claim	-0.09378124
-4.1399894	pride	-0.09378124
-4.1399894	hatred	-0.09378124
-4.1399894	envy	-0.09378124
-4.1399894	bigotry	-0.09378124
-4.1399894	selfishness	-0.09378124
-4.1399894	kith	-0.09378124
-4.1399894	kin	-0.09378124
-4.1399894	doings	-0.09378124
-4.1399894	suburbs	-0.09378124
-4.1399894	gigantic	-0.09378124
-3.901431	size	-0.09378124
-4.1399894	accommodate	-0.09378124
-4.1399894	ease	-0.09378124
-4.1399894	showing	-0.09378124
-3.901431	hearty	-0.09378124
-2.8962116	bob	-0.2717109
-3.464106	cratchits	-0.106384166
-4.016763	dwelling	-0.09378124
-4.016763	sprinklings	-0.2400968
-4.1399894	pocketed	-0.09378124
-4.1399894	saturdays	-0.09378124
-4.1399894	copies	-0.09378124
-4.1399894	fourroomed	-0.09378124
-3.464106	cratchit	-0.1819218
-3.7447822	dressed	-0.09378124
-4.1399894	twiceturned	-0.09378124
-4.1399894	gown	-0.09378124
-3.901431	brave	-0.1856619
-4.1399894	ribbons	-0.09378124
-4.1399894	goodly	-0.09378124
-4.016763	sixpence	-0.09378124
-4.1399894	cloth	-0.09378124
-4.1399894	assisted	-0.09378124
-4.016763	belinda	-0.09378124
-3.2104416	peter	-0.13729627
-4.1399894	fork	-0.09378124
-3.7447822	potatoes	-0.09378124
-4.1399894	corners	-0.09378124
-4.016763	shirt	-0.09378124
-4.1399894	collar	-0.09378124
-3.7447822	bobs	-0.09378124
-4.1399894	private	-0.09378124
-4.1399894	property	-0.09378124
-4.1399894	conferred	-0.09378124
-4.1399894	son	-0.09378124
-4.1399894	heir	-0.09378124
-4.1399894	gallantly	-0.09378124
-4.1399894	attired	-0.09378124
-4.1399894	yearned	-0.09378124
-4.1399894	linen	-0.09378124
-4.1399894	fashionable	-0.09378124
-4.1399894	parks	-0.09378124
-3.901431	tearing	-0.09378124
-4.1399894	screaming	-0.09378124
-4.1399894	smelt	-0.09378124
-3.901431	goose	-0.09378124
-4.1399894	basking	-0.09378124
-4.1399894	luxurious	-0.09378124
-4.016763	sage	-0.2400968
-4.1399894	onion	-0.09378124
-4.1399894	danced	-0.09378124
-4.1399894	exalted	-0.09378124
-4.1399894	skies	-0.09378124
-4.1399894	proud	-0.09378124
-4.1399894	collars	-0.09378124
-4.1399894	bubbling	-0.09378124
-4.1399894	lid	-0.09378124
-4.1399894	peeled	-0.09378124
-4.016763	tim	-0.15238687
-3.4001465	martha	-0.14654808
-4.1399894	warnt	-0.09378124
-4.016763	heres	-0.1856619
-4.016763	appearing	-0.09378124
-4.016763	hurrah	-0.2400968
-4.1399894	shawl	-0.09378124
-4.1399894	bonnet	-0.09378124
-4.1399894	officious	-0.09378124
-4.1399894	zeal	-0.09378124
-4.1399894	wed	-0.09378124
-4.1399894	finish	-0.09378124
-3.901431	ye	-0.1856619
-4.1399894	everywhere	-0.09378124
-4.1399894	hid	-0.09378124
-4.1399894	herself	-0.09378124
-4.1399894	exclusive	-0.09378124
-4.1399894	fringe	-0.09378124
-4.016763	threadbare	-0.09378124
-4.1399894	darned	-0.09378124
-4.1399894	brushed	-0.09378124
-4.016763	seasonable	-0.09378124
-4.1399894	shoulder	-0.09378124
-4.1399894	alas	-0.09378124
-4.016763	crutch	-0.09378124
-4.1399894	limbs	-0.09378124
-4.1399894	supported	-0.09378124
-4.1399894	frame	-0.09378124
-4.1399894	wheres	-0.09378124
-4.1399894	declension	-0.09378124
-4.1399894	tims	-0.09378124
-4.016763	horse	-0.09378124
-4.1399894	rampant	-0.09378124
-4.1399894	disappointed	-0.09378124
-4.1399894	prematurely	-0.09378124
-4.1399894	hustled	-0.09378124
-4.1399894	washhouse	-0.09378124
-4.1399894	copper	-0.2400968
-4.1399894	behave	-0.09378124
-4.1399894	rallied	-0.09378124
-4.016763	credulity	-0.09378124
-4.1399894	hugged	-0.09378124
-4.1399894	gets	-0.09378124
-4.1399894	thinks	-0.09378124
-4.016763	hoped	-0.09378124
-4.1399894	cripple	-0.09378124
-4.1399894	lame	-0.09378124
-4.1399894	active	-0.09378124
-4.1399894	escorted	-0.09378124
-4.1399894	cuffsas	-0.09378124
-4.1399894	capable	-0.09378124
-4.1399894	shabbycompounded	-0.09378124
-4.1399894	mixture	-0.09378124
-4.016763	jug	-0.09378124
-4.1399894	gin	-0.09378124
-4.1399894	simmer	-0.09378124
-4.1399894	ubiquitous	-0.09378124
-4.1399894	procession	-0.09378124
-4.1399894	bustle	-0.09378124
-4.1399894	rarest	-0.09378124
-4.1399894	birds	-0.09378124
-4.1399894	feathered	-0.09378124
-4.1399894	swan	-0.09378124
-4.1399894	courseand	-0.09378124
-4.1399894	beforehand	-0.09378124
-4.1399894	hissing	-0.09378124
-4.016763	mashed	-0.09378124
-4.1399894	incredible	-0.09378124
-4.1399894	sweetened	-0.09378124
-4.016763	apple	-0.2400968
-4.1399894	sauce	-0.09378124
-4.1399894	dusted	-0.09378124
-4.016763	plates	-0.09378124
-4.016763	forgetting	-0.09378124
-4.016763	mounting	-0.09378124
-4.1399894	guard	-0.09378124
-4.1399894	posts	-0.09378124
-4.1399894	crammed	-0.09378124
-4.1399894	spoons	-0.09378124
-4.1399894	lest	-0.09378124
-4.1399894	shriek	-0.09378124
-3.901431	turn	-0.09378124
-4.016763	helped	-0.09378124
-4.1399894	dishes	-0.09378124
-4.1399894	grace	-0.09378124
-4.016763	breathless	-0.09378124
-4.1399894	carvingknife	-0.09378124
-4.1399894	plunge	-0.09378124
-4.1399894	longexpected	-0.09378124
-4.1399894	gush	-0.09378124
-4.1399894	stuffing	-0.09378124
-4.1399894	issued	-0.09378124
-4.1399894	murmur	-0.09378124
-4.1399894	arose	-0.09378124
-4.016763	handle	-0.09378124
-4.1399894	knife	-0.09378124
-4.1399894	feebly	-0.09378124
-4.1399894	cooked	-0.09378124
-4.016763	tenderness	-0.09378124
-4.1399894	cheapness	-0.09378124
-4.1399894	themes	-0.09378124
-4.016763	universal	-0.09378124
-3.901431	admiration	-0.09378124
-4.1399894	eked	-0.09378124
-4.016763	sufficient	-0.09378124
-4.1399894	surveying	-0.09378124
-4.1399894	atom	-0.09378124
-4.1399894	bone	-0.09378124
-4.1399894	dish	-0.09378124
-4.016763	hadnt	-0.09378124
-4.1399894	ate	-0.09378124
-4.1399894	youngest	-0.09378124
-4.1399894	steeped	-0.09378124
-4.1399894	alonetoo	-0.09378124
-4.1399894	witnessesto	-0.09378124
-4.1399894	break	-0.09378124
-3.901431	somebody	-0.09378124
-4.1399894	backyard	-0.09378124
-4.1399894	stolen	-0.09378124
-4.1399894	goosea	-0.09378124
-4.1399894	sorts	-0.2400968
-4.1399894	horrors	-0.09378124
-4.016763	supposed	-0.09378124
-4.1399894	hallo	-0.57983094
-4.016763	smell	-0.1856619
-4.1399894	washingday	-0.09378124
-4.1399894	eatinghouse	-0.09378124
-4.1399894	pastrycooks	-0.09378124
-4.1399894	laundresss	-0.09378124
-4.1399894	enteredflushed	-0.09378124
-4.016763	smiling	-0.09378124
-4.1399894	proudlywith	-0.09378124
-4.1399894	speckled	-0.09378124
-4.1399894	cannonball	-0.09378124
-4.1399894	halfaquartern	-0.09378124
-4.1399894	ignited	-0.09378124
-4.1399894	brandy	-0.09378124
-4.1399894	bedight	-0.09378124
-4.1399894	calmly	-0.09378124
-4.016763	regarded	-0.09378124
-4.1399894	greatest	-0.09378124
-4.1399894	success	-0.09378124
-4.1399894	achieved	-0.09378124
-4.016763	marriage	-0.09378124
-4.016763	doubts	-0.09378124
-4.1399894	flour	-0.09378124
-4.1399894	flat	-0.09378124
-4.1399894	heresy	-0.09378124
-4.1399894	hint	-0.09378124
-4.1399894	compound	-0.09378124
-4.1399894	considered	-0.09378124
-4.1399894	circle	-0.09378124
-4.1399894	display	-0.09378124
-4.1399894	tumblers	-0.09378124
-4.1399894	custard	-0.09378124
-4.1399894	cup	-0.09378124
-4.016763	stuff	-0.09378124
-4.1399894	goblets	-0.09378124
-4.1399894	served	-0.09378124
-4.1399894	sputtered	-0.09378124
-4.1399894	noisily	-0.09378124
-4.1399894	proposed	-0.09378124
-4.1399894	dears	-0.09378124
-4.1399894	reechoed	-0.09378124
-4.016763	fathers	-0.09378124
-3.7447822	loved	-0.09378124
-4.016763	dreaded	-0.2400968
-4.1399894	vacant	-0.09378124
-4.1399894	seat	-0.09378124
-4.1399894	chimneycorner	-0.09378124
-4.1399894	carefully	-0.09378124
-4.1399894	preserved	-0.09378124
-4.1399894	remain	-0.2400968
